svm_type c_svc
kernel_type linear
nr_class 2
total_sv 5211
rho 0.176425
label 1 -1
nr_sv 2565 2646
SV
0.2081762646304348 249:1 515:1 584:1 716:1 2019:1 2321:1 3251:1 3868:1 5473:1 5755:1 6227:1 6736:1 7144:1 8453:1 9090:1 9131:1 9253:1 9470:1 9970:1 9994:1 10354:1 10510:1 10714:1 11292:1 12644:1 15081:1 15540:1 16074:1 16305:1 16528:1 18827:1 
0.0116790388125706 30:1 649:1 716:1 768:1 1422:1 1423:1 1505:1 1787:1 2523:1 3061:1 5473:1 5755:1 6227:1 6826:1 7144:1 7486:1 8954:1 9970:1 10432:1 10768:1 12324:1 13898:1 15366:1 15606:1 15722:1 16009:1 16293:1 17126:1 18382:1 
0.6163532372247543 256:1 5580:1 11322:1 13882:1 
0.722464607911942 716:1 2321:1 2626:1 2831:1 3917:1 4964:1 5473:1 7144:1 9370:1 9470:1 9970:1 9987:1 11631:1 12374:1 13323:1 13752:1 13835:1 15652:1 
0.242096378405617 716:1 1423:1 1772:1 2226:1 2228:1 2941:1 6179:1 6227:1 7183:1 9470:1 9498:1 9972:1 11844:1 12956:1 13291:1 13752:1 16528:1 17969:1 18205:1 18784:1 18875:1 
0.06231766602709795 212:1 515:1 716:1 3297:1 3577:1 3747:1 4963:1 5473:1 6806:1 7753:1 7784:1 8223:1 9998:1 11154:1 11486:1 11994:1 12902:1 13253:1 13323:1 16263:1 16293:1 16463:1 
0.8790794167036339 464:1 619:1 716:1 885:1 2188:1 2321:1 2463:1 4404:1 4964:1 5473:1 6227:1 7171:1 8537:1 9970:1 10381:1 13081:1 13512:1 14518:1 15176:1 18586:1 
0.3206949023425892 209:1 716:1 1423:1 1983:1 2230:1 2321:1 2446:1 3166:1 3250:1 4299:1 4818:1 5473:1 5811:1 6063:1 6227:1 7144:1 8088:1 9059:1 9972:1 10582:1 12300:1 13563:1 13835:1 13882:1 13990:1 15092:1 
0.08337715380030632 716:1 2596:1 2670:1 3158:1 4665:1 5132:1 8429:1 9199:1 9970:1 13824:1 16528:1 16570:1 17799:1 
0.1665623758894787 716:1 1623:1 2214:1 2321:1 3038:1 3251:1 4200:1 5294:1 5473:1 5956:1 9470:1 9970:1 10298:1 11631:1 11712:1 13648:1 15360:1 15553:1 17895:1 
0.6081012540929932 716:1 719:1 1423:1 3980:1 5294:1 5473:1 8505:1 9470:1 9972:1 13019:1 17267:1 18932:1 
0.8078532940494382 716:1 4450:1 7945:1 9987:1 11564:1 15104:1 
0.1266692127233162 238:1 716:1 2321:1 2596:1 2633:1 3481:1 3703:1 3866:1 4242:1 5473:1 9470:1 9980:1 11154:1 11944:1 13509:1 18556:1 
0.08217302403820594 716:1 6895:1 7144:1 9470:1 11486:1 13397:1 14817:1 17342:1 
0.1425781170723098 386:1 716:1 947:1 1539:1 2188:1 5009:1 6088:1 7144:1 8231:1 9470:1 9972:1 11154:1 11926:1 12407:1 12468:1 13563:1 13882:1 16381:1 17297:1 18556:1 
0.3726079408033317 716:1 947:1 2188:1 3393:1 4411:1 4476:1 5728:1 5832:1 5957:1 6165:1 7144:1 9972:1 10871:1 16528:1 16570:1 
1 256:1 716:1 2803:1 9470:1 12129:1 13563:1 16149:1 16733:1 
0.4477134206573985 4961:1 16069:1 
0.226740760378394 176:1 716:1 1804:1 2188:1 2228:1 2230:1 3045:1 4089:1 4123:1 5473:1 6227:1 7106:1 7144:1 7639:1 8429:1 8775:1 8858:1 9470:1 9972:1 10484:1 11807:1 12221:1 12550:1 12589:1 13824:1 13903:1 14717:1 15047:1 15173:1 15553:1 16286:1 16528:1 16956:1 18156:1 18606:1 
0.1998053547257299 716:1 2125:1 2321:1 2809:1 3075:1 6227:1 6816:1 7144:1 7387:1 7534:1 9777:1 9972:1 9998:1 10026:1 10198:1 10472:1 11544:1 11883:1 12807:1 15896:1 17142:1 
0.4259350386531747 619:1 663:1 716:1 2321:1 4086:1 7737:1 9470:1 9998:1 10479:1 10692:1 10817:1 16305:1 
1 716:1 2264:1 9470:1 9824:1 10644:1 16528:1 
0.5109404439005639 109:1 716:1 881:1 2321:1 3205:1 3658:1 4818:1 5473:1 5645:1 6497:1 7144:1 8856:1 9470:1 9843:1 9987:1 10915:1 12153:1 13563:1 13648:1 13752:1 13824:1 14786:1 15360:1 15737:1 16293:1 17678:1 
0.07693783943886177 584:1 716:1 882:1 1252:1 2321:1 2463:1 3251:1 3409:1 5473:1 6354:1 6895:1 7144:1 7640:1 7668:1 7719:1 7889:1 9253:1 9380:1 9470:1 9972:1 11486:1 13563:1 13883:1 14153:1 15059:1 15523:1 16293:1 16509:1 16528:1 17068:1 
0.2018116505458348 716:1 2151:1 3436:1 3909:1 4743:1 4818:1 7282:1 7953:1 9470:1 9970:1 12659:1 15367:1 15650:1 
0.1824459737482006 342:1 716:1 942:1 1354:1 1423:1 1438:1 1953:1 2008:1 2321:1 2802:1 3120:1 3297:1 4818:1 4942:1 5453:1 5473:1 6227:1 6746:1 7144:1 7784:1 7814:1 8506:1 9470:1 9970:1 11977:1 13152:1 13274:1 13752:1 15494:1 16293:1 17197:1 17258:1 18137:1 
0.3953137839634841 533:1 716:1 1879:1 2036:1 2151:1 3109:1 5096:1 5149:1 5275:1 5484:1 7144:1 7360:1 9470:1 11417:1 11610:1 12240:1 13752:1 16528:1 18032:1 
0.05736607307920186 60:1 716:1 1161:1 1418:1 2162:1 2675:1 3836:1 4736:1 5221:1 6111:1 6623:1 7008:1 9470:1 9885:1 11454:1 11876:1 12215:1 12948:1 15116:1 15396:1 16012:1 18250:1 18510:1 18914:1 
0.2129640506960639 400:1 716:1 947:1 2331:1 3590:1 4818:1 5473:1 7011:1 7144:1 11156:1 11486:1 13489:1 15956:1 16293:1 17228:1 
0.148249861479493 716:1 2151:1 2321:1 3412:1 3497:1 4476:1 5278:1 5473:1 5783:1 5988:1 6834:1 7789:1 9470:1 10078:1 10803:1 10811:1 11056:1 12391:1 12606:1 13752:1 14655:1 16293:1 16880:1 18442:1 
0.08569129162061859 716:1 882:1 920:1 926:1 929:1 1420:1 1730:1 2226:1 2228:1 2537:1 2598:1 3251:1 4928:1 4963:1 5093:1 5473:1 7144:1 7273:1 7498:1 8906:1 9972:1 10298:1 10995:1 11154:1 12174:1 13882:1 15399:1 15588:1 16293:1 16422:1 16528:1 17219:1 17823:1 18123:1 
0.5556255726705121 28:1 716:1 2030:1 2226:1 8706:1 8834:1 11935:1 16293:1 
0.1551113796373867 716:1 3083:1 4018:1 5473:1 5794:1 5956:1 6609:1 7144:1 7312:1 8881:1 9470:1 9498:1 9730:1 10976:1 12472:1 13648:1 14445:1 14741:1 15176:1 15360:1 16104:1 16293:1 16528:1 
0.02619473781213437 716:1 885:1 2321:1 2637:1 4663:1 5257:1 5645:1 7144:1 8860:1 9253:1 9470:1 9556:1 9972:1 10427:1 12153:1 13835:1 15509:1 16293:1 16528:1 16870:1 18123:1 
0.56653586679415 515:1 716:1 1844:1 2291:1 2321:1 2596:1 3251:1 4299:1 6947:1 9470:1 9972:1 11806:1 14563:1 15778:1 16293:1 
0.1178541322843101 86:1 716:1 2117:1 2321:1 2463:1 2992:1 3651:1 4983:1 5473:1 5766:1 6133:1 7144:1 8121:1 8702:1 9074:1 9470:1 10871:1 11310:1 12309:1 12334:1 13634:1 13882:1 15607:1 16063:1 16165:1 16293:1 16460:1 16956:1 17901:1 
0.03410730469895162 96:1 716:1 875:1 2125:1 2188:1 2190:1 2845:1 3270:1 5473:1 5924:1 6056:1 6091:1 6178:1 6314:1 8176:1 9970:1 10061:1 11443:1 12153:1 13323:1 14153:1 14879:1 16293:1 17814:1 
0.1968143313235878 716:1 2941:1 3270:1 3394:1 5737:1 6385:1 7144:1 9470:1 11443:1 11802:1 13132:1 16611:1 
0.6521583875366783 643:1 716:1 1465:1 1818:1 2941:1 3659:1 5473:1 6885:1 7289:1 7524:1 7585:1 9970:1 13824:1 
0.1040764178005235 5:1 294:1 716:1 885:1 1481:1 1511:1 1827:1 2321:1 2638:1 3823:1 5473:1 7144:1 9970:1 10811:1 11163:1 11658:1 11807:1 14378:1 14770:1 15160:1 16293:1 
0.049329696429544 716:1 2558:1 3582:1 3659:1 4818:1 5473:1 6466:1 7285:1 7396:1 8553:1 9824:1 9970:1 13405:1 13650:1 14740:1 16293:1 16528:1 17228:1 
0.2159554169063797 496:1 4818:1 5473:1 5673:1 7711:1 8858:1 9970:1 10742:1 15116:1 16019:1 16528:1 
0.1234133259461611 716:1 2596:1 2651:1 3200:1 3577:1 3917:1 4315:1 5088:1 5473:1 7144:1 8792:1 9470:1 9970:1 9972:1 10009:1 12468:1 12684:1 12782:1 13882:1 14320:1 14603:1 14841:1 16169:1 16408:1 
0.0782846623221654 716:1 2188:1 4054:1 5431:1 5473:1 6227:1 9970:1 9972:1 12046:1 12125:1 12279:1 12996:1 16178:1 16293:1 16528:1 17445:1 
0.09110122898629064 716:1 1006:1 2188:1 2516:1 3251:1 3952:1 4964:1 5473:1 6461:1 7144:1 7357:1 10803:1 11900:1 12282:1 13882:1 14470:1 16293:1 16422:1 16528:1 16726:1 16761:1 
0.184925424387269 133:1 338:1 716:1 885:1 947:1 1736:1 2371:1 2463:1 4818:1 4928:1 5473:1 6106:1 6227:1 6543:1 7144:1 8140:1 10941:1 11185:1 11391:1 12622:1 16293:1 16463:1 17197:1 
0.2946038542474214 584:1 2463:1 5755:1 7144:1 12300:1 15151:1 16035:1 16397:1 
1 716:1 1858:1 2321:1 2926:1 2941:1 3093:1 3251:1 3622:1 3659:1 5615:1 7144:1 9470:1 9972:1 9987:1 10464:1 10859:1 13786:1 13835:1 14153:1 16570:1 
0.03119713998848801 716:1 1825:1 2321:1 3350:1 5473:1 5707:1 6123:1 13188:1 16293:1 17328:1 17484:1 
0.2022014674915457 425:1 584:1 716:1 1341:1 2213:1 2463:1 4191:1 4963:1 5645:1 7144:1 10803:1 10811:1 13323:1 13393:1 13882:1 14153:1 15607:1 16528:1 18586:1 
0.5025691142142672 643:1 716:1 1423:1 3251:1 4071:1 5473:1 6127:1 8175:1 9470:1 10941:1 11181:1 11486:1 13268:1 13563:1 15176:1 16293:1 16463:1 16509:1 17082:1 18664:1 
0.7205196008448823 716:1 2226:1 12195:1 13310:1 
0.4837712076641439 716:1 754:1 1670:1 2228:1 2941:1 6522:1 7144:1 8229:1 8350:1 9470:1 9970:1 10151:1 10871:1 18418:1 18604:1 
0.03007093421722411 5:1 156:1 716:1 2230:1 2321:1 2503:1 2596:1 2643:1 4015:1 5473:1 7632:1 7640:1 9470:1 9970:1 11363:1 11630:1 14546:1 16528:1 17197:1 
0.03431850635280122 143:1 716:1 2228:1 2622:1 2941:1 3225:1 3690:1 5473:1 5802:1 7144:1 9470:1 9970:1 11356:1 13835:1 13903:1 13935:1 15553:1 15782:1 16293:1 16344:1 16460:1 16528:1 
0.863972825831889 716:1 2188:1 2430:1 2941:1 4299:1 5453:1 5473:1 6169:1 6729:1 7144:1 9972:1 11499:1 11844:1 13824:1 13835:1 15389:1 16528:1 16956:1 
0.2740664826267606 716:1 1151:1 1602:1 2008:1 2212:1 5473:1 7503:1 8237:1 9470:1 9989:1 11776:1 12126:1 12659:1 13563:1 13752:1 16150:1 16293:1 
0.01632193274263309 716:1 1154:1 1313:1 1423:1 2321:1 2803:1 3297:1 5440:1 5473:1 6227:1 7109:1 7640:1 9782:1 9897:1 10995:1 11486:1 11932:1 12555:1 13563:1 14335:1 15273:1 15782:1 16293:1 16956:1 17452:1 18664:1 
0.7972109320246068 133:1 716:1 2941:1 3659:1 6926:1 7144:1 7484:1 7623:1 9470:1 9987:1 11119:1 11667:1 13828:1 16293:1 17079:1 
0.1649445520212054 117:1 686:1 716:1 1827:1 2021:1 2226:1 2321:1 2985:1 3251:1 3270:1 3297:1 3349:1 3673:1 4368:1 4818:1 4845:1 5453:1 5473:1 6138:1 6522:1 6917:1 7144:1 9143:1 9470:1 9581:1 10904:1 11443:1 12320:1 13882:1 14153:1 14215:1 16395:1 16496:1 18915:1 
0.766765277002962 716:1 2941:1 3648:1 7144:1 8187:1 16293:1 
0.1716792900195593 224:1 716:1 1140:1 1828:1 2230:1 3173:1 5194:1 5649:1 7378:1 7640:1 8856:1 9470:1 9972:1 12468:1 13882:1 14771:1 15395:1 16293:1 17823:1 18440:1 
0.3129631843051439 716:1 2033:1 2596:1 4387:1 4818:1 6657:1 8385:1 8501:1 9470:1 9970:1 11448:1 12870:1 
0.04553198061094051 468:1 716:1 2230:1 2396:1 2575:1 6033:1 6618:1 9970:1 10579:1 11139:1 14204:1 16528:1 
0.2763889586929207 716:1 732:1 885:1 1086:1 1313:1 2188:1 4802:1 4818:1 5040:1 5453:1 5473:1 6776:1 7144:1 8536:1 8799:1 9470:1 9972:1 13563:1 13752:1 13882:1 15101:1 15548:1 15856:1 16286:1 16293:1 16528:1 17006:1 18149:1 
0.1878790595339083 687:1 716:1 866:1 1347:1 1423:1 2724:1 4424:1 5217:1 5473:1 5737:1 6227:1 6385:1 6854:1 9347:1 9470:1 9472:1 11990:1 13323:1 14593:1 15553:1 16528:1 16686:1 
0.6777267572095137 716:1 893:1 947:1 2291:1 2321:1 4411:1 4461:1 4927:1 5473:1 6227:1 7144:1 7285:1 8531:1 9470:1 9987:1 11016:1 13563:1 
0.3513470147766656 716:1 2596:1 3270:1 3704:1 5473:1 6227:1 6964:1 7144:1 10747:1 11459:1 12446:1 16293:1 18788:1 18805:1 
0.2081390213234214 716:1 1599:1 2691:1 4284:1 4942:1 5451:1 5473:1 5950:1 6253:1 8545:1 9128:1 9470:1 11281:1 11644:1 12469:1 12770:1 13563:1 13862:1 14035:1 14074:1 16463:1 16528:1 17384:1 
0.3532966574047886 643:1 716:1 2516:1 4818:1 5473:1 7144:1 15176:1 16293:1 16791:1 18680:1 
0.08304109476118418 716:1 732:1 1150:1 2329:1 2596:1 2800:1 3659:1 3740:1 4928:1 4977:1 5473:1 5707:1 6045:1 6227:1 6721:1 6949:1 9470:1 11714:1 12064:1 12590:1 13563:1 15356:1 16528:1 17197:1 18835:1 
0.3922778110395963 716:1 885:1 947:1 1281:1 3659:1 7094:1 7144:1 9470:1 11057:1 12611:1 13563:1 16528:1 16956:1 
0.2572763448987606 716:1 1213:1 1314:1 2321:1 2992:1 4818:1 5473:1 7051:1 7144:1 8276:1 8706:1 9253:1 9470:1 10418:1 11571:1 15273:1 16293:1 16528:1 16645:1 
0.4214055141919116 716:1 929:1 1155:1 1313:1 2858:1 3270:1 3659:1 4700:1 5473:1 5645:1 6088:1 7144:1 9470:1 9998:1 10859:1 11148:1 12366:1 13323:1 13563:1 13882:1 14320:1 15525:1 16293:1 16330:1 16422:1 16956:1 18664:1 18712:1 
0.2448010755384477 180:1 716:1 1759:1 1851:1 2103:1 2188:1 3443:1 4818:1 5473:1 8163:1 8176:1 8971:1 9466:1 9470:1 9689:1 10328:1 12520:1 12622:1 14334:1 14861:1 15176:1 15553:1 15895:1 16293:1 16570:1 16956:1 18372:1 
0.4295137893912212 541:1 716:1 1623:1 2226:1 2228:1 2321:1 3091:1 4913:1 5453:1 5473:1 5645:1 6093:1 8151:1 8683:1 8759:1 9166:1 9311:1 9470:1 9674:1 10582:1 11929:1 13903:1 14563:1 15085:1 16293:1 
0.02125110961163424 221:1 716:1 2047:1 3297:1 3577:1 4450:1 6925:1 7062:1 7144:1 7385:1 9970:1 11195:1 13824:1 16485:1 
0.07543983949073113 716:1 1022:1 1138:1 2226:1 2321:1 3659:1 4818:1 5122:1 5473:1 5510:1 5846:1 6050:1 6227:1 6925:1 7144:1 7582:1 7640:1 9024:1 9380:1 9470:1 10618:1 10872:1 11075:1 11486:1 11494:1 11786:1 13824:1 14153:1 16049:1 16293:1 17142:1 18032:1 18064:1 
0.7021016014458915 716:1 2430:1 2658:1 3029:1 4964:1 5328:1 5755:1 6841:1 7616:1 7639:1 9470:1 11950:1 12374:1 14314:1 
0.01216079468591651 716:1 1007:1 1404:1 1420:1 1759:1 1944:1 2230:1 2321:1 2430:1 2954:1 3659:1 3806:1 5040:1 5340:1 5473:1 6056:1 7144:1 7784:1 8088:1 8187:1 8308:1 8600:1 9470:1 9970:1 10337:1 10790:1 10871:1 12374:1 12442:1 12679:1 13539:1 13816:1 16293:1 16509:1 16528:1 17197:1 18506:1 
0.0761304220839112 716:1 1844:1 2047:1 2188:1 2596:1 3050:1 3499:1 4071:1 4802:1 4818:1 5473:1 7144:1 7702:1 7717:1 8305:1 9470:1 13239:1 13563:1 15987:1 16293:1 16528:1 16813:1 18664:1 
0.7026039974688345 716:1 1827:1 1973:1 2321:1 2926:1 3659:1 3704:1 5453:1 5473:1 9470:1 10427:1 12520:1 13420:1 16528:1 16787:1 18501:1 
0.1067239337433621 224:1 716:1 885:1 1710:1 2321:1 2415:1 2596:1 3270:1 3735:1 5473:1 5913:1 6056:1 7115:1 7144:1 9998:1 10045:1 10403:1 10953:1 12008:1 13323:1 13882:1 16422:1 16528:1 17079:1 
0.2359249108307067 587:1 662:1 716:1 885:1 1073:1 1423:1 1981:1 2321:1 2394:1 3659:1 4818:1 5473:1 6926:1 9470:1 9970:1 9972:1 11181:1 11517:1 12324:1 13498:1 13590:1 14475:1 16528:1 
0.5589983260054195 515:1 631:1 716:1 2122:1 2261:1 5473:1 6088:1 7144:1 8231:1 8457:1 8989:1 9470:1 9970:1 12468:1 13563:1 13882:1 15670:1 
0.5320873507975352 5:1 716:1 2321:1 2941:1 3932:1 5076:1 6447:1 6479:1 7113:1 9470:1 9564:1 10040:1 11773:1 16528:1 17497:1 17644:1 
0.1223458409323879 716:1 2596:1 3577:1 3659:1 4818:1 5255:1 5652:1 6643:1 6925:1 7144:1 8961:1 9970:1 9972:1 10125:1 10811:1 13563:1 13882:1 13919:1 14715:1 15480:1 16293:1 16528:1 16570:1 
0.1922624003558678 716:1 1140:1 2188:1 2226:1 2291:1 10681:1 13824:1 18906:1 
0.4154736973038599 716:1 2941:1 4106:1 11444:1 11913:1 13648:1 13949:1 15360:1 16528:1 18375:1 
0.09867373928216246 633:1 716:1 1101:1 2188:1 2544:1 2664:1 2923:1 3282:1 5473:1 10392:1 11031:1 11486:1 14335:1 16293:1 16528:1 
0.2950696244087245 133:1 716:1 1313:1 1606:1 3270:1 3659:1 6762:1 6926:1 7144:1 7188:1 7212:1 8431:1 8760:1 9470:1 9970:1 9987:1 11988:1 14116:1 14770:1 16293:1 16528:1 18695:1 
0.01754483117369004 314:1 716:1 832:1 885:1 2228:1 4818:1 4947:1 5473:1 5645:1 5737:1 6227:1 6351:1 7144:1 7573:1 8354:1 9228:1 9470:1 9494:1 9775:1 9998:1 10803:1 10991:1 11473:1 15684:1 16013:1 16293:1 16429:1 17197:1 
0.1535412035135874 236:1 716:1 929:1 947:1 2321:1 2926:1 3503:1 3577:1 5473:1 5645:1 6087:1 6088:1 7144:1 7289:1 8426:1 9470:1 9970:1 10067:1 11204:1 11207:1 12871:1 13563:1 13752:1 15160:1 15540:1 16528:1 16570:1 
0.1024932239264827 716:1 925:1 2596:1 3756:1 4818:1 5365:1 5473:1 5956:1 6968:1 9470:1 9970:1 12468:1 13882:1 15652:1 16509:1 16528:1 
0.1403289537963463 716:1 732:1 774:1 1655:1 3704:1 4464:1 5260:1 5453:1 5473:1 7144:1 9470:1 12555:1 16293:1 17056:1 18123:1 
0.1126270936387207 24:1 716:1 2523:1 2596:1 2871:1 3270:1 3756:1 4063:1 7144:1 8163:1 9470:1 9970:1 11486:1 12125:1 13512:1 13882:1 16293:1 16528:1 17890:1 18240:1 
0.1451345264009838 716:1 947:1 1100:1 1661:1 2228:1 3577:1 3659:1 3704:1 4818:1 4964:1 5098:1 5473:1 5529:1 9264:1 9383:1 9470:1 9970:1 11476:1 11926:1 12468:1 13074:1 13882:1 14572:1 16076:1 16182:1 16293:1 16330:1 16528:1 17142:1 17197:1 
0.1180652244414036 584:1 716:1 2384:1 2463:1 2994:1 3236:1 3446:1 5473:1 6921:1 7144:1 7533:1 8059:1 9470:1 10542:1 11248:1 11551:1 14249:1 16293:1 
0.09681591161973074 716:1 2596:1 4781:1 5473:1 7618:1 8872:1 9470:1 9970:1 9972:1 13382:1 15783:1 16293:1 16376:1 18712:1 18805:1 
0.03412781739752058 716:1 2188:1 2228:1 2321:1 2774:1 5040:1 6178:1 6893:1 7144:1 7285:1 9388:1 9470:1 10061:1 10843:1 11592:1 13835:1 15336:1 
0.522888485214874 716:1 2321:1 3251:1 9682:1 14033:1 14188:1 
0.02983903698418058 96:1 643:1 716:1 1420:1 1618:1 1623:1 2307:1 3131:1 3251:1 3281:1 4802:1 4818:1 5217:1 6248:1 7784:1 9470:1 12213:1 12974:1 13280:1 13882:1 14541:1 16293:1 16528:1 16787:1 17068:1 17190:1 
0.0867070380552292 716:1 885:1 2151:1 2188:1 2321:1 3091:1 3329:1 3811:1 4435:1 5217:1 5666:1 6227:1 6399:1 7488:1 7580:1 8642:1 9470:1 11590:1 15001:1 16528:1 16829:1 
0.1258851705088785 531:1 716:1 1289:1 2321:1 2583:1 2596:1 3251:1 3270:1 3703:1 4627:1 5714:1 5746:1 6988:1 7144:1 7428:1 8041:1 8751:1 8786:1 9470:1 12996:1 13563:1 13730:1 14470:1 15059:1 15565:1 16293:1 16528:1 17166:1 17197:1 18712:1 
0.1010501672900594 716:1 885:1 947:1 1281:1 1723:1 2596:1 2666:1 4137:1 4450:1 6509:1 10920:1 12041:1 13213:1 13622:1 13882:1 14327:1 14727:1 16293:1 17079:1 
0.3689008561059901 716:1 4888:1 5684:1 7144:1 16932:1 
0.2896813831102898 716:1 1844:1 2228:1 2321:1 2597:1 2680:1 3158:1 4071:1 4818:1 5120:1 5260:1 5453:1 5473:1 5564:1 5722:1 6227:1 6347:1 7144:1 8702:1 8730:1 8860:1 9470:1 9972:1 10356:1 13563:1 13882:1 16251:1 16293:1 16330:1 16528:1 17197:1 18932:1 
0.5659644575084267 531:1 716:1 859:1 2188:1 2220:1 3319:1 7144:1 9127:1 15273:1 16293:1 16528:1 17789:1 
0.09596996164978092 716:1 2188:1 3270:1 3349:1 3783:1 5445:1 5473:1 6088:1 6324:1 6925:1 7127:1 7144:1 8153:1 9470:1 9638:1 9987:1 12008:1 12363:1 12984:1 13310:1 16028:1 16293:1 
0.1195758771362138 716:1 3290:1 3297:1 3659:1 3747:1 4818:1 5473:1 7144:1 7650:1 7696:1 11198:1 11857:1 12418:1 12537:1 12592:1 12784:1 14109:1 15582:1 16293:1 17556:1 
0.04021653239679889 716:1 1354:1 2188:1 3277:1 3704:1 4648:1 5722:1 7144:1 7719:1 9970:1 10582:1 11459:1 16293:1 16528:1 18675:1 
0.0368548681175141 386:1 716:1 912:1 929:1 947:1 2230:1 2321:1 2503:1 5473:1 7632:1 7640:1 9470:1 10464:1 10510:1 10995:1 13835:1 14963:1 16528:1 16956:1 17197:1 18230:1 
0.1033040112827631 515:1 716:1 3641:1 3659:1 3747:1 4817:1 5473:1 6227:1 9970:1 10148:1 11031:1 11787:1 16293:1 16528:1 17772:1 18784:1 
0.1494536712314656 643:1 716:1 1827:1 4291:1 4802:1 11009:1 11098:1 
0.3018819684488156 716:1 1205:1 1423:1 1659:1 2008:1 2226:1 2978:1 4818:1 7144:1 9253:1 9970:1 9972:1 13752:1 14825:1 
0.1615159152313806 716:1 1835:1 2188:1 2228:1 2313:1 5400:1 5473:1 5645:1 5722:1 6776:1 6925:1 7144:1 7360:1 7784:1 7931:1 8137:1 8858:1 9470:1 12008:1 13563:1 13882:1 16293:1 16463:1 
1 716:1 3446:1 14546:1 
1 626:1 716:1 885:1 1466:1 2380:1 2670:1 3659:1 4818:1 4890:1 5183:1 5473:1 6127:1 6227:1 7222:1 7285:1 7784:1 9470:1 9541:1 9682:1 9941:1 10626:1 11486:1 12075:1 13563:1 13882:1 16293:1 16463:1 18712:1 
1 716:1 2941:1 3091:1 6925:1 7144:1 
0.1564112890687011 716:1 2824:1 5314:1 5473:1 6227:1 7144:1 8858:1 10213:1 15091:1 16956:1 
0.1588782243452004 643:1 716:1 1354:1 4921:1 5473:1 7428:1 8706:1 9470:1 9498:1 13004:1 16293:1 16756:1 
0.3592641803982361 209:1 716:1 929:1 2230:1 2321:1 2670:1 3535:1 4942:1 7144:1 7526:1 7632:1 10953:1 11154:1 11494:1 14892:1 15957:1 16787:1 18556:1 
0.7167828082873269 716:1 5473:1 6227:1 7144:1 7484:1 9380:1 10286:1 10341:1 11486:1 11804:1 13835:1 16293:1 16305:1 16631:1 17869:1 18556:1 
0.2745717865606749 361:1 716:1 719:1 947:1 1606:1 1833:1 2228:1 2321:1 3527:1 4928:1 5737:1 6427:1 7041:1 9970:1 9972:1 9994:1 12374:1 12440:1 12468:1 13323:1 14188:1 14770:1 14920:1 16528:1 16813:1 17142:1 17823:1 
0.5862386725576195 123:1 515:1 716:1 937:1 3251:1 4411:1 4942:1 4963:1 5624:1 5766:1 6088:1 6227:1 6423:1 7879:1 9470:1 10841:1 11571:1 12348:1 12659:1 13786:1 13882:1 15001:1 15615:1 16422:1 16528:1 18556:1 
0.4738045189801693 716:1 1356:1 3659:1 4802:1 6776:1 7144:1 8856:1 
0.2208399864667957 716:1 1827:1 2321:1 4316:1 5473:1 9498:1 11031:1 11443:1 14049:1 14222:1 15493:1 16293:1 16330:1 17197:1 
0.4094433757788615 716:1 885:1 1039:1 1412:1 2151:1 2268:1 2321:1 3457:1 4512:1 6776:1 6925:1 7011:1 7144:1 7378:1 8044:1 9307:1 9470:1 10512:1 12555:1 13323:1 13512:1 14188:1 15623:1 16528:1 18891:1 
0.03362228442528987 716:1 2188:1 2230:1 2349:1 4178:1 5073:1 5473:1 5865:1 5910:1 6293:1 6923:1 7144:1 9994:1 10383:1 10531:1 12996:1 16344:1 16528:1 16927:1 17474:1 17632:1 18632:1 
0.1834748235377418 716:1 2099:1 2321:1 2596:1 3270:1 5473:1 5667:1 6205:1 6227:1 7036:1 9470:1 10057:1 12363:1 13961:1 16630:1 
0.1844439905582838 716:1 1827:1 2151:1 2321:1 2926:1 2933:1 5453:1 5473:1 8109:1 9970:1 9972:1 10671:1 12374:1 12705:1 16528:1 
0.1782410294310567 521:1 583:1 716:1 2321:1 3590:1 4963:1 5818:1 6088:1 6532:1 6762:1 7144:1 8594:1 9972:1 10015:1 10489:1 12662:1 13563:1 15607:1 16293:1 16475:1 16528:1 16570:1 
0.1270438412338534 716:1 1423:1 2188:1 2226:1 2230:1 2321:1 2892:1 2920:1 3129:1 3510:1 4370:1 7144:1 7632:1 8173:1 8251:1 9059:1 9470:1 9638:1 13159:1 13470:1 13882:1 15151:1 17142:1 18805:1 
0.5156058131511621 24:1 716:1 947:1 1244:1 2226:1 2596:1 3128:1 4027:1 6088:1 7144:1 7490:1 7875:1 8229:1 9470:1 9857:1 9972:1 10995:1 13752:1 13882:1 16293:1 16422:1 
0.2770729753661936 716:1 1151:1 2188:1 2321:1 3582:1 3733:1 5294:1 5473:1 5645:1 6227:1 6677:1 7144:1 9460:1 9470:1 9498:1 9751:1 10565:1 10803:1 11631:1 12348:1 13188:1 13323:1 14000:1 16463:1 
0.37375869672611 304:1 716:1 947:1 4068:1 4411:1 5217:1 9470:1 9970:1 9972:1 14595:1 16528:1 16570:1 18205:1 
0.5735117424070186 643:1 716:1 1759:1 2228:1 2230:1 2596:1 5453:1 5473:1 5720:1 8075:1 8472:1 9972:1 16724:1 16810:1 
0.2228509738565635 716:1 2230:1 2970:1 3927:1 4796:1 4818:1 6227:1 6895:1 7144:1 7632:1 10381:1 12167:1 
0.08614460390020427 716:1 947:1 1257:1 1889:1 2151:1 2188:1 2883:1 4302:1 4929:1 4964:1 5473:1 6983:1 7144:1 8423:1 10738:1 11399:1 13835:1 16293:1 17901:1 18123:1 18501:1 
0.2950727079192639 716:1 885:1 2321:1 4691:1 4775:1 5662:1 7032:1 7144:1 8736:1 9972:1 10207:1 16528:1 16757:1 16802:1 17142:1 
0.1391464546326743 90:1 716:1 774:1 813:1 885:1 1100:1 1851:1 3247:1 3498:1 4538:1 4676:1 4802:1 4818:1 4963:1 5057:1 5473:1 5540:1 6227:1 7144:1 8768:1 9470:1 9970:1 9972:1 10262:1 11542:1 12290:1 12901:1 14019:1 14396:1 16113:1 16293:1 16528:1 18343:1 
0.09598991707005049 716:1 885:1 2228:1 2321:1 3270:1 3659:1 4777:1 4920:1 5855:1 6091:1 9470:1 11443:1 11866:1 12439:1 12570:1 13824:1 13903:1 16171:1 16528:1 18476:1 18606:1 18691:1 
0.6029026546483989 289:1 325:1 646:1 716:1 2596:1 3251:1 3659:1 4334:1 4963:1 5950:1 9006:1 9470:1 11486:1 14563:1 16528:1 17197:1 
0.4002713469689245 716:1 1674:1 4910:1 5201:1 5453:1 5473:1 5666:1 7488:1 9139:1 9897:1 13896:1 15407:1 16293:1 
0.275230037303959 268:1 716:1 1120:1 1502:1 1827:1 1858:1 2321:1 4113:1 4116:1 5453:1 5473:1 7041:1 7094:1 7144:1 7368:1 7954:1 8552:1 8776:1 8791:1 9470:1 9824:1 10198:1 10790:1 11378:1 12468:1 13752:1 13835:1 15603:1 16528:1 
0.7186233052826885 638:1 716:1 1545:1 3430:1 3802:1 5473:1 9970:1 16528:1 17969:1 
0.5031575106641131 716:1 1844:1 2596:1 3049:1 4963:1 5215:1 5473:1 5593:1 6088:1 7468:1 7870:1 8132:1 8579:1 9970:1 10941:1 10991:1 11031:1 12023:1 13835:1 16293:1 16459:1 18556:1 
0.1450083265981376 716:1 2228:1 2430:1 3659:1 4001:1 4963:1 4964:1 5928:1 7285:1 7644:1 8971:1 9624:1 9970:1 11486:1 12075:1 13498:1 16528:1 18806:1 
0.03719323255421761 587:1 716:1 929:1 1410:1 2226:1 2228:1 2230:1 3297:1 5453:1 5473:1 7144:1 7632:1 8401:1 8668:1 8710:1 8858:1 9347:1 9470:1 12100:1 12225:1 13393:1 13458:1 13899:1 16293:1 16528:1 
0.3730867307199048 716:1 1356:1 2226:1 6227:1 7307:1 8856:1 9470:1 9751:1 9972:1 12154:1 13305:1 16293:1 
1 4664:1 7144:1 9470:1 10991:1 13882:1 15480:1 16042:1 16293:1 16570:1 17184:1 17727:1 
0.1720775635806411 224:1 716:1 732:1 750:1 1691:1 1858:1 2321:1 3297:1 3659:1 4881:1 7144:1 7160:1 7879:1 9426:1 9498:1 12153:1 12221:1 13882:1 15543:1 15650:1 16528:1 17142:1 17184:1 17348:1 
0.09303077699678351 716:1 926:1 1281:1 2228:1 2786:1 4106:1 4388:1 5473:1 6056:1 8429:1 8856:1 9029:1 9253:1 9470:1 9970:1 9972:1 10671:1 11204:1 11977:1 12143:1 13323:1 13752:1 13882:1 14595:1 16293:1 16528:1 16956:1 18205:1 
0.1501115988648447 337:1 716:1 937:1 947:1 1454:1 2321:1 2596:1 4758:1 4818:1 5473:1 5564:1 5783:1 7051:1 7144:1 7211:1 8080:1 9253:1 9470:1 9638:1 9970:1 10074:1 10700:1 10803:1 10817:1 11679:1 12030:1 12170:1 12251:1 12531:1 14394:1 14470:1 14563:1 16149:1 16293:1 16528:1 17197:1 18907:1 
0.916620035067646 209:1 716:1 3336:1 4035:1 5473:1 6088:1 13835:1 13876:1 13882:1 15778:1 16819:1 17205:1 
0.3609628788064476 515:1 716:1 1451:1 1785:1 2228:1 2321:1 2429:1 2596:1 2941:1 3250:1 4179:1 5069:1 5473:1 5918:1 6227:1 7484:1 8713:1 9470:1 9970:1 9972:1 13068:1 13323:1 13835:1 14685:1 14919:1 16293:1 16401:1 
0.2739859977790567 716:1 2226:1 2321:1 5473:1 5476:1 6282:1 7289:1 8654:1 9172:1 9296:1 9572:1 9972:1 11183:1 14984:1 15511:1 16293:1 16528:1 
0.01117871876379088 716:1 1401:1 2226:1 2463:1 2941:1 4964:1 5473:1 7144:1 7531:1 7567:1 9330:1 9470:1 9970:1 9972:1 10738:1 13563:1 13648:1 13752:1 13835:1 13882:1 15160:1 15360:1 16528:1 17467:1 
0.08910143116179098 584:1 716:1 885:1 2549:1 2721:1 2760:1 3207:1 3270:1 4173:1 4928:1 5453:1 5473:1 5647:1 5926:1 8101:1 9470:1 11746:1 12374:1 12644:1 14861:1 16293:1 16728:1 17142:1 
0.1755751327501542 716:1 1354:1 2211:1 2226:1 2228:1 4999:1 5473:1 6303:1 7425:1 7479:1 9498:1 9972:1 10722:1 11517:1 15311:1 15611:1 16293:1 18932:1 
0.3748397643476398 716:1 885:1 1077:1 2941:1 3499:1 4034:1 5473:1 7144:1 7840:1 9470:1 15763:1 
0.1269339930060259 150:1 716:1 719:1 1651:1 1968:1 2228:1 2596:1 2824:1 5473:1 6227:1 7144:1 
0.3539065033240175 1122:1 2142:1 2228:1 5473:1 6422:1 9970:1 9972:1 12374:1 16528:1 17196:1 
0.2000557623067534 409:1 716:1 2084:1 2228:1 2321:1 3044:1 3832:1 4006:1 4963:1 5079:1 5410:1 5473:1 5487:1 5950:1 7144:1 7250:1 7282:1 7889:1 8856:1 9470:1 11745:1 13882:1 14845:1 15421:1 16293:1 16528:1 
0.7561798502641285 619:1 716:1 885:1 893:1 1404:1 1657:1 2321:1 5088:1 6091:1 6227:1 7144:1 8971:1 9359:1 9658:1 9970:1 9972:1 14770:1 
0.346058638607236 716:1 893:1 1423:1 1657:1 2047:1 2226:1 2321:1 3039:1 3270:1 3350:1 4269:1 4818:1 4963:1 5143:1 5217:1 5294:1 6197:1 6368:1 9470:1 9970:1 9972:1 9994:1 10298:1 10941:1 11804:1 12772:1 16528:1 16570:1 16819:1 17419:1 17484:1 
0.7074685664557705 150:1 327:1 716:1 947:1 2226:1 2318:1 3527:1 4818:1 7820:1 9470:1 9970:1 10095:1 11118:1 11417:1 12887:1 14475:1 15272:1 17142:1 
0.09053366225776567 716:1 1302:1 2221:1 2226:1 2569:1 5473:1 5681:1 6056:1 7144:1 7428:1 8173:1 9470:1 10995:1 11994:1 13073:1 13835:1 14563:1 15553:1 16293:1 16305:1 16463:1 16528:1 17079:1 17100:1 17197:1 17733:1 
0.3244451130601811 327:1 716:1 867:1 1402:1 2321:1 3659:1 6227:1 7144:1 7246:1 9362:1 9970:1 10790:1 11494:1 11932:1 13005:1 13563:1 16570:1 
0.03300236346996983 716:1 1151:1 3390:1 3590:1 3747:1 5132:1 5473:1 6304:1 11396:1 13933:1 
0.1512709570731724 515:1 716:1 769:1 1759:1 2228:1 2588:1 2602:1 3341:1 5473:1 5707:1 5916:1 6227:1 7051:1 7098:1 7144:1 9470:1 9972:1 10941:1 11418:1 11486:1 13353:1 14925:1 15216:1 16340:1 16528:1 16830:1 
0.4271124985710358 353:1 716:1 2134:1 2321:1 3251:1 5473:1 5510:1 5801:1 6227:1 9470:1 11536:1 13046:1 13150:1 13188:1 16185:1 16293:1 16463:1 16610:1 18932:1 
0.551362393105826 584:1 716:1 926:1 947:1 2321:1 2369:1 2463:1 2623:1 3756:1 4269:1 4927:1 4964:1 5473:1 5855:1 6226:1 6762:1 6929:1 7144:1 8431:1 9058:1 9470:1 9987:1 9998:1 11147:1 11883:1 13300:1 13752:1 13988:1 16353:1 16463:1 16528:1 18293:1 18627:1 
0.1720706930741795 150:1 716:1 885:1 3530:1 3772:1 4388:1 4963:1 5473:1 6262:1 7285:1 7296:1 9470:1 9970:1 11443:1 11486:1 12309:1 15001:1 15049:1 16293:1 16528:1 
0.2591171113204469 716:1 3704:1 7144:1 8211:1 15571:1 
0.6678658219837482 716:1 947:1 2151:1 2321:1 3251:1 4497:1 4818:1 5473:1 9470:1 9518:1 9972:1 10198:1 10671:1 12468:1 12480:1 13882:1 14153:1 15105:1 17197:1 17933:1 18664:1 
0.1434599927599777 716:1 1609:1 2188:1 2226:1 2386:1 3577:1 3704:1 7144:1 7407:1 8142:1 11459:1 
0.4850274071726199 716:1 1035:1 1281:1 1533:1 2226:1 2291:1 2321:1 2941:1 4885:1 4963:1 5473:1 6088:1 6897:1 7113:1 7285:1 7378:1 7692:1 9470:1 9972:1 12520:1 13323:1 13563:1 13835:1 13882:1 13915:1 14650:1 16514:1 16528:1 16728:1 17196:1 
0.1387314808580828 716:1 2321:1 2596:1 2633:1 3251:1 3270:1 3680:1 4075:1 4561:1 4818:1 5473:1 6008:1 6088:1 6197:1 6827:1 12394:1 12659:1 13563:1 16293:1 16528:1 18483:1 
0.3926513548847651 164:1 716:1 2321:1 3349:1 3659:1 4818:1 5100:1 5453:1 8457:1 9470:1 9970:1 9998:1 11341:1 11486:1 13323:1 13731:1 13824:1 13835:1 13882:1 16095:1 16528:1 16570:1 16787:1 17142:1 18382:1 
0.06247061323781434 716:1 1891:1 4966:1 5334:1 5473:1 5629:1 9470:1 9970:1 16528:1 
0.03417831601687718 716:1 807:1 3659:1 4268:1 4818:1 5473:1 8931:1 9470:1 11216:1 12169:1 13882:1 16076:1 16463:1 16528:1 17197:1 
0.3883719069852594 716:1 947:1 1047:1 1423:1 2321:1 2400:1 3393:1 3403:1 3590:1 3880:1 5876:1 5982:1 6088:1 6227:1 6314:1 6361:1 8927:1 9065:1 9470:1 9970:1 9972:1 13085:1 13769:1 13882:1 13961:1 14841:1 16293:1 17079:1 18712:1 18858:1 
0.1599402578967346 716:1 1354:1 2047:1 2226:1 2516:1 3039:1 3659:1 4292:1 4818:1 5473:1 6227:1 6522:1 7147:1 7988:1 9970:1 11242:1 11486:1 12436:1 13586:1 13824:1 14000:1 16293:1 17660:1 
0.1024568284225369 716:1 947:1 1420:1 2188:1 2915:1 3038:1 3704:1 4818:1 5473:1 7144:1 8431:1 8756:1 9470:1 9987:1 11346:1 11347:1 11913:1 14741:1 15090:1 15336:1 16528:1 16738:1 18556:1 
1 716:1 875:1 4411:1 5473:1 5820:1 5956:1 6051:1 6091:1 6361:1 7144:1 9253:1 9470:1 9972:1 9987:1 13323:1 
0.3052538201464039 159:1 381:1 595:1 716:1 885:1 1319:1 1827:1 2864:1 3786:1 4517:1 4823:1 7144:1 7911:1 9470:1 10466:1 14770:1 17166:1 
0.3036548474096778 224:1 716:1 719:1 1151:1 5049:1 5473:1 6088:1 7285:1 8632:1 9470:1 9970:1 13350:1 13563:1 14162:1 14875:1 15176:1 
0.09921961487210107 391:1 571:1 716:1 885:1 947:1 1939:1 2941:1 3659:1 3882:1 6626:1 7962:1 7966:1 9970:1 10582:1 12374:1 13818:1 16293:1 16528:1 
0.2849281978047293 110:1 619:1 716:1 1313:1 2321:1 3251:1 5473:1 6056:1 6088:1 6227:1 6947:1 7945:1 8856:1 9498:1 9682:1 13323:1 13563:1 13882:1 16293:1 16529:1 18315:1 
0.6448734327470295 716:1 719:1 1525:1 2321:1 2400:1 5963:1 6227:1 6929:1 8311:1 8428:1 8856:1 9470:1 9786:1 9972:1 9994:1 11494:1 11582:1 12468:1 12644:1 14563:1 16293:1 16570:1 16787:1 
0.1804843377801642 98:1 716:1 719:1 1440:1 2228:1 2941:1 4818:1 5473:1 5650:1 6227:1 6374:1 7144:1 8555:1 8923:1 9674:1 9970:1 9972:1 10319:1 11079:1 16293:1 16448:1 
0.05706448870848137 587:1 716:1 2321:1 2926:1 2941:1 3251:1 3659:1 4035:1 4818:1 5194:1 5473:1 6810:1 7144:1 7871:1 7976:1 8187:1 8856:1 9288:1 9470:1 9970:1 9972:1 9987:1 10456:1 10643:1 12304:1 13512:1 13526:1 13648:1 13835:1 13932:1 14015:1 15360:1 16463:1 16528:1 17102:1 17384:1 
0.5765118795899341 456:1 716:1 929:1 1657:1 1712:1 1736:1 2125:1 2230:1 3075:1 3804:1 3880:1 4818:1 5473:1 6227:1 6475:1 7144:1 7567:1 8399:1 9470:1 9498:1 9970:1 10784:1 10871:1 13563:1 13835:1 13882:1 14861:1 16293:1 17469:1 
0.4111019108553826 136:1 716:1 1986:1 2151:1 2226:1 2228:1 2321:1 2892:1 3251:1 3838:1 4890:1 7285:1 7342:1 8466:1 9245:1 9470:1 9998:1 13786:1 15985:1 16528:1 17506:1 17533:1 18805:1 
0.6664865775537127 470:1 716:1 743:1 947:1 2130:1 2226:1 2485:1 3057:1 3251:1 3622:1 4192:1 5453:1 5473:1 5649:1 5766:1 6955:1 7827:1 8585:1 9264:1 9470:1 10871:1 11712:1 13130:1 13882:1 14428:1 16422:1 17142:1 17252:1 17901:1 18123:1 18556:1 
0.2367179316361877 509:1 716:1 732:1 2114:1 2226:1 4320:1 4450:1 5453:1 5473:1 9302:1 9470:1 12972:1 13824:1 
0.246755503022182 716:1 1205:1 2321:1 2992:1 3655:1 4281:1 5453:1 5473:1 7011:1 7428:1 9470:1 10540:1 12468:1 13563:1 13882:1 14470:1 14673:1 16076:1 17572:1 
1 716:1 2941:1 3180:1 4315:1 4495:1 4818:1 4963:1 6227:1 7144:1 8730:1 9470:1 10366:1 11490:1 13512:1 16293:1 
0.07421475534730822 96:1 209:1 314:1 716:1 2230:1 2321:1 2430:1 2549:1 3251:1 3713:1 3761:1 4411:1 4928:1 4942:1 5473:1 5707:1 5863:1 6088:1 7285:1 8354:1 9059:1 9470:1 9970:1 9998:1 11468:1 12046:1 12668:1 13712:1 14925:1 16121:1 16293:1 16305:1 17142:1 17197:1 18784:1 18858:1 
0.2064551397875024 305:1 584:1 716:1 1304:1 1787:1 2321:1 4118:1 4678:1 6088:1 6361:1 7726:1 8206:1 9466:1 9470:1 9669:1 9970:1 10991:1 13882:1 
1 2213:1 9618:1 11489:1 15055:1 16528:1 18561:1 
0.3131586011263374 716:1 1365:1 2169:1 2188:1 2226:1 2321:1 3584:1 4082:1 5088:1 5260:1 5801:1 9470:1 9970:1 10738:1 12106:1 12659:1 16528:1 16550:1 18660:1 
0.0569241626818887 716:1 947:1 2228:1 3038:1 3659:1 4818:1 5473:1 6056:1 6088:1 6925:1 7144:1 7640:1 9470:1 9970:1 9972:1 11047:1 11430:1 11486:1 12023:1 12153:1 15521:1 15522:1 16293:1 17917:1 18932:1 
0.3584111661973525 716:1 2423:1 2941:1 5633:1 9470:1 10582:1 10694:1 16528:1 
0.1239629791411911 716:1 2638:1 5132:1 8153:1 13643:1 
0.2961924540642832 716:1 2070:1 2226:1 3705:1 5651:1 12627:1 13824:1 14934:1 15553:1 
0.4905437752743233 662:1 716:1 5382:1 5453:1 5473:1 7144:1 8726:1 16293:1 16771:1 16947:1 
0.3782719629865911 716:1 929:1 1095:1 2226:1 3270:1 3349:1 3582:1 4818:1 5158:1 5473:1 5666:1 6226:1 7051:1 7144:1 8180:1 9998:1 14286:1 14786:1 16293:1 16466:1 16528:1 16956:1 17743:1 
0.1169209862125534 716:1 947:1 959:1 1354:1 2596:1 4232:1 5473:1 5620:1 6843:1 7144:1 8317:1 9972:1 10198:1 11486:1 12792:1 13882:1 16918:1 18016:1 
0.5286865440292964 19:1 716:1 1396:1 1402:1 1423:1 1785:1 2934:1 2941:1 3659:1 4436:1 5473:1 6487:1 7144:1 9470:1 9970:1 9987:1 9998:1 10337:1 10811:1 13504:1 16528:1 17197:1 
0.1770131306855173 716:1 2230:1 2596:1 4818:1 5473:1 7036:1 7166:1 7632:1 9470:1 10213:1 10370:1 12225:1 12863:1 13563:1 13784:1 13882:1 
0.05728098051850886 7:1 716:1 2992:1 3091:1 6776:1 7144:1 9470:1 10378:1 16528:1 
1 716:1 7036:1 8231:1 
0.1117404130741648 716:1 2188:1 2775:1 3704:1 5795:1 6299:1 7144:1 7854:1 10215:1 11394:1 12114:1 12697:1 16293:1 16434:1 16528:1 17534:1 
0.05079934471795366 515:1 716:1 719:1 981:1 1858:1 3044:1 4035:1 4881:1 5564:1 5755:1 8675:1 9470:1 9987:1 10937:1 10941:1 11053:1 11335:1 13835:1 16293:1 18583:1 
0.6586033357126095 1423:1 2228:1 2670:1 3486:1 3590:1 3658:1 4802:1 4895:1 8971:1 9970:1 9972:1 18290:1 
0.269989522401842 716:1 778:1 1151:1 1420:1 2321:1 2411:1 3270:1 3400:1 4281:1 4982:1 5473:1 7183:1 7541:1 7966:1 7998:1 8137:1 8818:1 9025:1 9470:1 10991:1 16322:1 16367:1 16528:1 17940:1 18270:1 18556:1 
0.8301880088968981 716:1 1313:1 3251:1 3659:1 4071:1 7144:1 13752:1 16155:1 16293:1 16570:1 
0.2053986081423652 716:1 3577:1 4964:1 6120:1 6227:1 6522:1 7222:1 7285:1 7606:1 8971:1 9470:1 9972:1 12107:1 17197:1 
0.5977492598971698 716:1 2226:1 5278:1 7144:1 7285:1 10618:1 11486:1 12374:1 12468:1 13444:1 15500:1 15974:1 
0.02760307945081017 716:1 732:1 2321:1 2498:1 4818:1 5140:1 5473:1 6088:1 6227:1 6361:1 7144:1 7948:1 8418:1 8982:1 11059:1 11332:1 11368:1 16528:1 17197:1 17727:1 
1 716:1 3704:1 9470:1 11851:1 11916:1 
0.3757121520500701 716:1 3270:1 5088:1 8270:1 9959:1 13393:1 18935:1 
0.4849195652643888 716:1 2228:1 2810:1 3659:1 4315:1 5294:1 6361:1 6522:1 6822:1 7428:1 9470:1 9498:1 9987:1 10115:1 12468:1 13512:1 13563:1 14153:1 15805:1 16293:1 17068:1 17079:1 18123:1 18712:1 
0.2915968714623043 716:1 1281:1 3233:1 3270:1 4035:1 4927:1 7541:1 8163:1 8222:1 9470:1 9972:1 9987:1 11059:1 13835:1 16106:1 16463:1 18123:1 
0.04879058186950444 150:1 209:1 716:1 2047:1 2321:1 3349:1 4485:1 5473:1 5752:1 6684:1 9470:1 9970:1 9994:1 10445:1 10448:1 10995:1 11333:1 11486:1 11511:1 11739:1 14563:1 14934:1 16048:1 16293:1 16463:1 16528:1 17308:1 18770:1 18858:1 
0.2850276348559828 716:1 3403:1 6738:1 14817:1 16528:1 
1 716:1 2716:1 4818:1 5645:1 7144:1 9116:1 9349:1 9970:1 12555:1 
0.2774094633779703 209:1 716:1 2226:1 2321:1 2941:1 4963:1 6134:1 7144:1 8594:1 13563:1 13835:1 15643:1 16528:1 
0.1699439019912003 716:1 947:1 2321:1 2430:1 2463:1 2992:1 4249:1 4495:1 4907:1 5473:1 6051:1 6123:1 6227:1 6776:1 7144:1 9412:1 9470:1 11486:1 11712:1 12170:1 13563:1 13882:1 14651:1 14828:1 16463:1 16528:1 17792:1 18032:1 18784:1 
0.1720166179474587 716:1 719:1 1423:1 1858:1 2321:1 2366:1 3805:1 4818:1 6088:1 6641:1 7640:1 8222:1 9470:1 9618:1 9843:1 11532:1 13512:1 13924:1 16293:1 16463:1 16528:1 17161:1 17197:1 18018:1 
0.278713185984141 715:1 716:1 719:1 1140:1 1211:1 2188:1 2555:1 2941:1 3270:1 3430:1 3748:1 5473:1 5649:1 7144:1 7488:1 8391:1 8672:1 9470:1 9843:1 9987:1 9998:1 10941:1 11486:1 12685:1 13396:1 13824:1 16293:1 16528:1 17079:1 18038:1 
0.4074513427474064 716:1 885:1 947:1 1402:1 3270:1 5473:1 7144:1 9470:1 10758:1 10784:1 11317:1 11466:1 13512:1 13644:1 13752:1 14228:1 16293:1 18529:1 
0.06193778275240459 9:1 209:1 716:1 1252:1 1402:1 1801:1 2228:1 2321:1 2342:1 3655:1 4927:1 5727:1 7144:1 7578:1 7889:1 8594:1 9370:1 9470:1 9987:1 10466:1 13112:1 13212:1 13824:1 13835:1 15643:1 16305:1 16528:1 16890:1 
0.2755975102679866 229:1 716:1 947:1 1260:1 2596:1 2926:1 3659:1 4526:1 5105:1 6227:1 8856:1 9332:1 11926:1 18446:1 
1 2155:1 2935:1 7144:1 7623:1 8971:1 9470:1 9998:1 15490:1 
0.04463348527670339 716:1 1971:1 2321:1 2941:1 3082:1 3593:1 3659:1 3832:1 5473:1 6000:1 7428:1 9470:1 9782:1 12069:1 12550:1 13379:1 13882:1 14755:1 15273:1 15493:1 16293:1 16509:1 16528:1 18163:1 
1 716:1 2926:1 9972:1 11631:1 14892:1 16528:1 
0.4017771301060724 515:1 716:1 947:1 1370:1 2724:1 3518:1 3941:1 5473:1 9470:1 9998:1 10811:1 11154:1 12258:1 12291:1 12744:1 13323:1 18556:1 18858:1 
0.006857702968465071 716:1 4818:1 5119:1 6227:1 7144:1 7285:1 9843:1 9970:1 10483:1 12771:1 16271:1 
0.05583107317296062 496:1 716:1 929:1 1423:1 1732:1 1858:1 2321:1 2926:1 3091:1 3622:1 4818:1 4928:1 4942:1 5217:1 5473:1 8221:1 9470:1 10464:1 13323:1 13835:1 14644:1 16528:1 16570:1 17197:1 18712:1 18911:1 
0.4899052925472012 315:1 716:1 2228:1 7144:1 9370:1 9470:1 10758:1 11631:1 12824:1 13563:1 
0.1553344034707283 716:1 885:1 925:1 1599:1 1623:1 2191:1 2228:1 2909:1 3431:1 3849:1 5356:1 5473:1 5614:1 7285:1 8041:1 9470:1 13648:1 15307:1 15360:1 16293:1 16528:1 18018:1 18058:1 
0.2246289902529669 716:1 735:1 2099:1 4818:1 6227:1 7144:1 9470:1 9498:1 10009:1 11486:1 12304:1 17070:1 
1 716:1 6926:1 7144:1 9470:1 10811:1 11486:1 13335:1 16258:1 
0.0917005251518699 154:1 716:1 1203:1 1997:1 2188:1 2321:1 3270:1 4781:1 5153:1 5473:1 6227:1 6868:1 6915:1 7144:1 8211:1 9970:1 9972:1 11486:1 11853:1 11926:1 14901:1 16293:1 16406:1 17090:1 18205:1 18742:1 
0.8670045025355077 1140:1 3049:1 3900:1 4141:1 4937:1 4963:1 5473:1 5755:1 6227:1 7488:1 7639:1 9260:1 9264:1 9470:1 9843:1 10803:1 11986:1 13512:1 14763:1 15480:1 
0.06605107347773144 716:1 2228:1 7144:1 8697:1 11486:1 11797:1 16293:1 16418:1 16503:1 16614:1 18340:1 
0.2112659926974387 224:1 314:1 643:1 716:1 832:1 1674:1 2596:1 2941:1 3659:1 3836:1 5473:1 5753:1 6885:1 7484:1 8354:1 9470:1 9970:1 11921:1 13835:1 16293:1 17218:1 
0.5126755704740352 515:1 716:1 885:1 1149:1 1423:1 2992:1 4692:1 5453:1 5473:1 5755:1 6227:1 7051:1 7144:1 8672:1 8858:1 9470:1 9717:1 12304:1 14026:1 14228:1 14770:1 15480:1 18664:1 
0.7871668142360481 716:1 2226:1 2463:1 3747:1 5483:1 7285:1 7629:1 8088:1 8555:1 9038:1 9498:1 9970:1 9972:1 10618:1 11747:1 12075:1 13303:1 13323:1 13563:1 14470:1 16293:1 16528:1 17142:1 18205:1 
0.3251300459809555 716:1 1140:1 2008:1 2226:1 2230:1 2516:1 4270:1 5033:1 5473:1 5538:1 5649:1 6088:1 6361:1 6522:1 6925:1 10705:1 13882:1 15142:1 15156:1 16115:1 16293:1 16330:1 
0.2226456435916846 5:1 716:1 875:1 947:1 1140:1 2188:1 2321:1 2596:1 2941:1 3049:1 3349:1 3659:1 4964:1 5221:1 5593:1 7144:1 7378:1 7474:1 8784:1 8856:1 9470:1 9972:1 12256:1 12469:1 12892:1 13629:1 13737:1 13882:1 16528:1 
0.2805112263812054 322:1 716:1 6227:1 7144:1 8645:1 9470:1 9972:1 10379:1 11317:1 13241:1 17196:1 17317:1 18205:1 
0.1470990261081508 716:1 1759:1 2188:1 2617:1 3466:1 5132:1 5465:1 5564:1 6240:1 6705:1 7144:1 9470:1 10531:1 13563:1 13882:1 14475:1 15326:1 16528:1 
0.2489354349810104 314:1 389:1 716:1 885:1 1153:1 1329:1 2226:1 2941:1 5473:1 16293:1 
0.7202734081527162 716:1 2188:1 2230:1 4299:1 4344:1 4627:1 4927:1 4939:1 5473:1 6056:1 6904:1 6925:1 7144:1 7632:1 9470:1 9582:1 13563:1 13752:1 13882:1 14228:1 16293:1 17371:1 18840:1 
0.08109834379321551 20:1 294:1 716:1 1428:1 2226:1 2321:1 4492:1 5457:1 6293:1 7616:1 9470:1 9970:1 12118:1 16528:1 17274:1 17918:1 
0.188953265780581 716:1 719:1 1423:1 1445:1 2036:1 2188:1 2321:1 2908:1 2992:1 3251:1 3270:1 3433:1 3482:1 5014:1 5473:1 5929:1 6227:1 6608:1 7085:1 7810:1 7996:1 8625:1 9470:1 9657:1 11570:1 12374:1 13752:1 13903:1 16076:1 16528:1 18043:1 18120:1 
0.1571060957865047 266:1 496:1 690:1 716:1 885:1 1785:1 2193:1 2228:1 2321:1 2596:1 3270:1 4818:1 5098:1 5373:1 5473:1 5657:1 5755:1 5950:1 6532:1 7024:1 7144:1 9470:1 9472:1 9603:1 9945:1 9987:1 10378:1 10381:1 11530:1 12897:1 12957:1 13563:1 14377:1 15520:1 16150:1 18011:1 18499:1 
0.345638392759995 643:1 716:1 1203:1 1311:1 2151:1 2321:1 3251:1 4035:1 4859:1 4929:1 4963:1 5473:1 6130:1 6227:1 7585:1 9470:1 9520:1 10651:1 10803:1 13835:1 16528:1 16570:1 16819:1 18556:1 
0.1535423889412853 716:1 947:1 1298:1 2188:1 2230:1 2321:1 3389:1 4230:1 6056:1 6836:1 9332:1 9470:1 10447:1 10817:1 11195:1 11443:1 13085:1 13882:1 14595:1 16528:1 17969:1 
0.3684413029593522 716:1 3659:1 4818:1 6088:1 6929:1 7144:1 7645:1 7868:1 8399:1 8856:1 9036:1 9330:1 9470:1 9910:1 11486:1 13882:1 17268:1 17733:1 
0.3608504497946671 716:1 885:1 986:1 1171:1 4102:1 4914:1 10116:1 13264:1 16293:1 17245:1 
0.04993797197312441 220:1 716:1 2151:1 2549:1 2966:1 3270:1 3352:1 3659:1 5473:1 6047:1 6267:1 7820:1 8553:1 9470:1 9654:1 9970:1 11118:1 15273:1 16293:1 16528:1 17937:1 
0.02982728373440415 132:1 521:1 716:1 885:1 1206:1 3659:1 4827:1 4942:1 5790:1 7094:1 7144:1 8765:1 9470:1 9498:1 9970:1 10681:1 13323:1 13383:1 13556:1 13882:1 15160:1 16293:1 18784:1 
0.535329919406032 238:1 353:1 584:1 716:1 1313:1 1402:1 2463:1 5473:1 6088:1 6169:1 7101:1 7144:1 8480:1 9470:1 9987:1 11341:1 13323:1 13835:1 16185:1 16286:1 16422:1 
0.1591495465991389 716:1 732:1 1256:1 1354:1 1759:1 1773:1 1854:1 2193:1 3659:1 4316:1 4818:1 4902:1 5473:1 6127:1 6189:1 6227:1 9470:1 11098:1 12127:1 12984:1 13037:1 14255:1 14968:1 15737:1 16293:1 16330:1 17146:1 17197:1 
0.6942271038278408 716:1 1140:1 2230:1 2321:1 5057:1 5473:1 5666:1 5755:1 6194:1 6227:1 7144:1 7429:1 8431:1 9234:1 9370:1 9498:1 13323:1 13563:1 14381:1 16293:1 16528:1 16956:1 18777:1 
0.5043492830351124 584:1 716:1 1939:1 2321:1 2463:1 3120:1 4818:1 5473:1 6926:1 7285:1 9972:1 9994:1 11047:1 11443:1 11486:1 12221:1 12659:1 15395:1 16330:1 16509:1 17068:1 17197:1 
0.0874475777541107 716:1 885:1 1313:1 1423:1 2321:1 2463:1 2670:1 3577:1 3622:1 3659:1 3918:1 4285:1 4964:1 5429:1 5473:1 5515:1 5649:1 6099:1 6127:1 6227:1 7391:1 7474:1 7672:1 7827:1 9470:1 9498:1 10784:1 11029:1 11369:1 11486:1 12204:1 12254:1 13563:1 13882:1 16128:1 16293:1 16528:1 17382:1 18123:1 
0.8872130660866067 716:1 1954:1 2188:1 2463:1 2638:1 2664:1 5473:1 5838:1 6645:1 6746:1 7144:1 7488:1 7616:1 9470:1 10447:1 13752:1 16293:1 16434:1 16956:1 
0.3030095236923872 243:1 716:1 981:1 1288:1 2670:1 5453:1 6227:1 7144:1 9316:1 9972:1 10587:1 10779:1 11859:1 15160:1 15273:1 
0.1904245093342319 584:1 716:1 1065:1 2130:1 2321:1 3350:1 4315:1 5473:1 5855:1 7526:1 9470:1 11443:1 12230:1 12303:1 12525:1 14861:1 15223:1 15856:1 16443:1 16528:1 
0.1311382849184735 444:1 643:1 716:1 2189:1 2321:1 3091:1 5473:1 5949:1 6640:1 7784:1 8098:1 9466:1 9470:1 9932:1 11148:1 11950:1 12468:1 14572:1 16293:1 16528:1 16918:1 
0.0645527065396736 716:1 1660:1 1944:1 3265:1 7075:1 10593:1 13752:1 16528:1 
0.1451640212587143 716:1 1242:1 2188:1 2228:1 3198:1 3297:1 3590:1 3649:1 4508:1 4818:1 5473:1 5645:1 6146:1 6227:1 6762:1 7053:1 7144:1 7183:1 9116:1 9349:1 12804:1 13835:1 15466:1 15652:1 16293:1 16528:1 16956:1 
0.7153832569550739 716:1 1423:1 2228:1 2321:1 2941:1 3284:1 5473:1 6088:1 7517:1 9470:1 10466:1 10643:1 10738:1 11807:1 12391:1 13126:1 13648:1 14563:1 15360:1 16293:1 16951:1 17568:1 17955:1 
0.5816713129557937 314:1 716:1 885:1 930:1 947:1 2307:1 2516:1 2596:1 3349:1 3590:1 4758:1 5564:1 6776:1 7144:1 7510:1 9470:1 9767:1 10808:1 12184:1 13882:1 16293:1 16528:1 
0.07054661995051931 716:1 719:1 1256:1 1423:1 1773:1 2151:1 2188:1 2941:1 3297:1 3447:1 3659:1 4412:1 4802:1 5473:1 7144:1 7222:1 8101:1 9253:1 9264:1 9460:1 9470:1 10742:1 11779:1 11933:1 12008:1 12046:1 12550:1 13106:1 13563:1 13882:1 14770:1 15940:1 16293:1 16305:1 16801:1 17184:1 18805:1 
0.1473062960053333 716:1 2133:1 2226:1 3075:1 6227:1 9987:1 10531:1 10538:1 12905:1 15272:1 
0.2426532121278974 1404:1 4269:1 5473:1 6227:1 6671:1 7892:1 9470:1 9619:1 9970:1 9972:1 10807:1 11486:1 13882:1 14687:1 16293:1 16528:1 
0.1478130271825246 224:1 643:1 716:1 719:1 2008:1 2321:1 2966:1 4781:1 5473:1 5483:1 5649:1 5662:1 5963:1 6088:1 6194:1 6677:1 7144:1 8431:1 8752:1 8802:1 9470:1 9498:1 9970:1 11494:1 13752:1 13835:1 15857:1 16293:1 
0.5187079726548283 716:1 885:1 947:1 1947:1 2549:1 5473:1 5575:1 5950:1 5956:1 6056:1 6088:1 6679:1 6731:1 7183:1 9059:1 13835:1 14470:1 14861:1 16509:1 16528:1 17142:1 17697:1 18870:1 
0.04854631769371877 716:1 1983:1 2151:1 2188:1 2228:1 2321:1 2549:1 2941:1 5913:1 5950:1 7057:1 7144:1 7840:1 8340:1 8959:1 9470:1 9970:1 9987:1 9994:1 11147:1 11361:1 11486:1 12279:1 12476:1 13512:1 13775:1 16293:1 16305:1 16528:1 17037:1 17401:1 
0.1203142646383131 638:1 716:1 1690:1 2188:1 3431:1 4963:1 5473:1 9970:1 10447:1 16111:1 16528:1 
0.4229721111420986 925:1 5473:1 8015:1 9062:1 9470:1 10991:1 12374:1 13563:1 13882:1 15090:1 16184:1 18556:1 
0.2071925656041286 90:1 716:1 2307:1 5473:1 5653:1 5950:1 6868:1 7144:1 8519:1 9059:1 9470:1 10024:1 10173:1 10567:1 10738:1 10995:1 12570:1 13752:1 15480:1 15540:1 17068:1 17879:1 
0.2107429517321575 716:1 2463:1 2941:1 3582:1 3590:1 3704:1 5431:1 5473:1 5645:1 6983:1 7144:1 9970:1 9972:1 16434:1 16570:1 
0.05218674646614113 716:1 2226:1 3923:1 14825:1 
0.2956159343887458 716:1 1849:1 1972:1 2321:1 2463:1 2823:1 3659:1 4800:1 5473:1 7144:1 8531:1 9470:1 9970:1 10428:1 10811:1 16401:1 16528:1 18806:1 
0.1784458457448745 716:1 947:1 1394:1 2101:1 2188:1 2897:1 3251:1 4180:1 5473:1 5564:1 6056:1 7144:1 7840:1 8756:1 9470:1 9998:1 10173:1 11952:1 13882:1 14217:1 14784:1 16293:1 16422:1 16845:1 17409:1 
0.1846660372660748 499:1 515:1 716:1 732:1 2230:1 4752:1 5473:1 6019:1 6635:1 7144:1 7632:1 8885:1 9116:1 9470:1 10061:1 10408:1 10410:1 10478:1 14701:1 16293:1 
0.1855907142562893 219:1 716:1 1060:1 1140:1 2321:1 2400:1 3055:1 3747:1 4495:1 5473:1 6088:1 6286:1 7144:1 7285:1 7491:1 8137:1 8750:1 9470:1 9972:1 10151:1 10181:1 10299:1 11154:1 11486:1 12555:1 13752:1 13882:1 16293:1 16528:1 16570:1 
0.1213953020733424 451:1 716:1 2188:1 7144:1 9970:1 12221:1 13323:1 14277:1 14770:1 15197:1 15909:1 16570:1 16819:1 
0.7160496861023261 716:1 786:1 947:1 1140:1 1403:1 1623:1 2226:1 2228:1 5473:1 6028:1 6885:1 7207:1 9470:1 10790:1 11156:1 11884:1 16169:1 16768:1 18205:1 
0.09815461669486281 69:1 113:1 222:1 643:1 716:1 719:1 1545:1 2525:1 2588:1 2941:1 3659:1 3867:1 4634:1 5453:1 5473:1 5565:1 6925:1 7144:1 8106:1 8585:1 9470:1 10790:1 11418:1 13034:1 13114:1 13752:1 13898:1 15223:1 16528:1 18350:1 18857:1 
0.251884640602784 716:1 2228:1 2596:1 4090:1 5473:1 5744:1 6834:1 8173:1 8875:1 9470:1 9963:1 13150:1 15176:1 15553:1 16111:1 16956:1 
0.02492106931296539 256:1 716:1 1704:1 4248:1 7144:1 7635:1 9970:1 
0.2038457751499392 716:1 926:1 1057:1 2157:1 6782:1 9548:1 13752:1 16528:1 18499:1 
0.1198125406977381 716:1 2321:1 2430:1 2634:1 3659:1 4835:1 5473:1 8852:1 9498:1 9783:1 14892:1 15490:1 
1 716:1 947:1 1545:1 2941:1 3091:1 5473:1 9970:1 9972:1 16293:1 17598:1 
0.4461695008149199 528:1 716:1 5391:1 9498:1 12023:1 12985:1 16293:1 
0.00674144284644507 716:1 2228:1 2693:1 3349:1 3659:1 3704:1 5355:1 5473:1 5950:1 6361:1 7101:1 7144:1 8910:1 9068:1 9470:1 9498:1 10941:1 11313:1 11916:1 14102:1 16113:1 16293:1 16466:1 18368:1 
0.02417819214797123 716:1 1262:1 2188:1 2321:1 2670:1 2759:1 3180:1 4383:1 4928:1 7144:1 9470:1 9970:1 10559:1 11269:1 13552:1 13563:1 13824:1 16293:1 16528:1 
0.9008305961421076 716:1 3297:1 7664:1 9264:1 15031:1 
0.02046821006508274 716:1 1164:1 1404:1 2226:1 2915:1 3231:1 4964:1 5453:1 7144:1 9485:1 9489:1 12570:1 16293:1 16956:1 
0.2905999837293306 716:1 1313:1 1420:1 2228:1 2657:1 2676:1 3659:1 4818:1 5681:1 6127:1 10871:1 13323:1 14770:1 
0.07759909328026222 716:1 753:1 887:1 1293:1 3000:1 3510:1 3705:1 3803:1 3915:1 4818:1 5122:1 5473:1 7144:1 8128:1 9065:1 9187:1 9470:1 9611:1 9987:1 13271:1 15427:1 16220:1 16293:1 16528:1 
0.299268389934428 716:1 2230:1 2514:1 4123:1 7144:1 7169:1 8086:1 9470:1 9485:1 9970:1 11274:1 11853:1 16528:1 17733:1 
1 716:1 2926:1 2941:1 3659:1 4963:1 6925:1 7144:1 9970:1 9972:1 11631:1 12169:1 
0.04815182019164347 716:1 947:1 977:1 1733:1 2228:1 3577:1 4758:1 4840:1 5473:1 6056:1 7784:1 9470:1 9970:1 10650:1 16960:1 
0.4725779193781082 584:1 716:1 1354:1 1709:1 3120:1 4818:1 5473:1 6088:1 9470:1 9541:1 9970:1 11137:1 12985:1 13882:1 15001:1 16528:1 17374:1 18664:1 
0.03348804968798076 716:1 2228:1 2999:1 3327:1 5473:1 6051:1 6227:1 7144:1 8858:1 9097:1 10540:1 11886:1 17374:1 
0.3743509411630557 716:1 924:1 1745:1 3000:1 3704:1 6227:1 6310:1 7144:1 7222:1 7572:1 8963:1 9782:1 10811:1 10871:1 14957:1 16528:1 16529:1 
0.4015057231974423 716:1 1151:1 2516:1 4299:1 5473:1 5564:1 7784:1 9470:1 11783:1 12550:1 13847:1 13982:1 14084:1 16293:1 18556:1 
0.09352425646251851 716:1 1117:1 1260:1 3344:1 3659:1 3725:1 3880:1 3900:1 4818:1 6227:1 6347:1 7144:1 8449:1 9470:1 9970:1 10681:1 11486:1 12659:1 16252:1 16293:1 16299:1 16528:1 16610:1 
0.1468241970410526 716:1 719:1 2230:1 5473:1 6204:1 8594:1 9470:1 9593:1 9972:1 9998:1 10916:1 11987:1 12052:1 13552:1 13835:1 13882:1 14926:1 16293:1 16463:1 16528:1 18556:1 
0.3133637668302434 716:1 2596:1 2897:1 3659:1 5063:1 5216:1 6056:1 6489:1 8277:1 9470:1 13512:1 13752:1 13882:1 17197:1 
0.1017679398993691 716:1 1466:1 1827:1 2005:1 2321:1 2463:1 2580:1 3251:1 4295:1 4777:1 4818:1 5473:1 5649:1 7680:1 8519:1 9970:1 9972:1 11966:1 15160:1 16570:1 
0.48264016693326 716:1 4230:1 4753:1 5453:1 7616:1 9277:1 10362:1 11184:1 14861:1 15763:1 15882:1 16150:1 16305:1 16528:1 17572:1 
0.5635205776236548 640:1 716:1 925:1 1339:1 2230:1 2321:1 2463:1 3659:1 4636:1 5217:1 7285:1 9470:1 9970:1 9972:1 9987:1 13824:1 13882:1 13883:1 14153:1 14355:1 14387:1 15273:1 16293:1 16528:1 18586:1 
0.3652426716666037 716:1 2058:1 2321:1 2596:1 5140:1 6179:1 8146:1 11178:1 11317:1 14470:1 16528:1 
0.02821298895105431 105:1 150:1 716:1 2188:1 5473:1 7927:1 9717:1 10444:1 11341:1 12441:1 13342:1 14121:1 16293:1 16528:1 17492:1 18673:1 18858:1 18932:1 
0.05915499853975751 716:1 947:1 1543:1 2188:1 2321:1 2516:1 2596:1 3694:1 4964:1 5362:1 5473:1 5564:1 5645:1 6689:1 7144:1 8484:1 8860:1 10125:1 10963:1 16191:1 16293:1 16434:1 16463:1 16528:1 
0.2102685376069836 519:1 716:1 1262:1 1623:1 2188:1 2226:1 2321:1 2708:1 3350:1 3620:1 3885:1 5166:1 5473:1 5755:1 5859:1 6514:1 7144:1 8810:1 9470:1 9520:1 9970:1 9998:1 10342:1 10466:1 10682:1 11154:1 13323:1 13417:1 14247:1 15001:1 15441:1 15684:1 15733:1 16293:1 16463:1 16787:1 18266:1 
1 716:1 937:1 1082:1 2228:1 2463:1 2638:1 5473:1 6088:1 7144:1 9470:1 10784:1 11204:1 11486:1 11844:1 12075:1 13563:1 13882:1 16293:1 
0.1472939137705665 458:1 716:1 947:1 3476:1 5785:1 7144:1 9470:1 15834:1 
0.3753984507605586 5:1 161:1 716:1 1333:1 1423:1 3836:1 4818:1 5473:1 5767:1 6088:1 7144:1 7640:1 8752:1 9290:1 9383:1 9470:1 10811:1 10871:1 10995:1 12555:1 13073:1 13323:1 14227:1 14615:1 16528:1 17205:1 
1 716:1 3704:1 7144:1 11459:1 16611:1 
0.5020353273198572 716:1 947:1 4497:1 7144:1 8399:1 13563:1 18032:1 
0.04495006586189949 885:1 1402:1 2188:1 2226:1 2228:1 3402:1 5423:1 6841:1 7067:1 7797:1 8888:1 9470:1 10331:1 11156:1 12173:1 15214:1 16528:1 
0.1985126013117087 296:1 716:1 929:1 1383:1 4963:1 4984:1 5015:1 5140:1 6401:1 7032:1 7061:1 8834:1 9470:1 9970:1 10742:1 12154:1 12304:1 12957:1 12996:1 13323:1 13882:1 16293:1 16528:1 17142:1 17197:1 
0.3778969340265457 5:1 716:1 1179:1 1281:1 2694:1 2897:1 5473:1 13106:1 13940:1 16293:1 16528:1 
0.3280217983572667 716:1 2321:1 6227:1 6792:1 7144:1 8568:1 9470:1 9970:1 12292:1 13504:1 14776:1 14891:1 15336:1 16956:1 
0.06272668718118665 716:1 2005:1 2408:1 3704:1 5473:1 16293:1 18202:1 
0.2770695086082975 716:1 1623:1 2321:1 2926:1 6361:1 7365:1 7624:1 9337:1 9972:1 11494:1 12993:1 13835:1 15059:1 15160:1 16570:1 18382:1 18556:1 
0.1489313354685804 122:1 515:1 716:1 947:1 2226:1 2321:1 2463:1 2839:1 4315:1 6455:1 6929:1 7144:1 7285:1 7702:1 7783:1 7798:1 9163:1 9470:1 9924:1 9994:1 10671:1 11443:1 12622:1 13546:1 13752:1 17179:1 17197:1 18901:1 
0.5249097741052839 470:1 716:1 1031:1 1370:1 1925:1 2228:1 7144:1 9970:1 14968:1 16528:1 
0.4213454953749764 531:1 716:1 1879:1 2228:1 2670:1 2941:1 5473:1 7144:1 9470:1 9568:1 9970:1 9972:1 11486:1 13507:1 13829:1 13882:1 15114:1 15354:1 16293:1 16743:1 17366:1 18205:1 
1 716:1 1907:1 2596:1 6088:1 7578:1 8856:1 9470:1 9520:1 9972:1 13264:1 13563:1 13882:1 16528:1 17901:1 
0.2122762169494692 716:1 1235:1 2464:1 3312:1 3764:1 5473:1 8231:1 8634:1 9498:1 11000:1 12468:1 14845:1 14987:1 16293:1 
0.3279656163627499 716:1 6702:1 7144:1 7976:1 8469:1 9957:1 11163:1 11459:1 11658:1 14447:1 16131:1 16293:1 16528:1 
0.06698722106131082 716:1 3270:1 4008:1 7227:1 8188:1 9267:1 9470:1 9970:1 10361:1 10853:1 12685:1 13563:1 16528:1 17481:1 18257:1 18472:1 18539:1 
0.1591633997497565 224:1 716:1 719:1 875:1 2523:1 3173:1 3433:1 5209:1 6929:1 7144:1 8776:1 8856:1 9264:1 9470:1 9972:1 10261:1 12625:1 14770:1 15735:1 16293:1 16519:1 16743:1 17823:1 
0.3899727432343988 224:1 643:1 716:1 951:1 2321:1 3038:1 3350:1 3673:1 4411:1 5473:1 6088:1 6227:1 6361:1 9470:1 9970:1 10747:1 10784:1 10953:1 11486:1 12391:1 13752:1 13882:1 16570:1 18043:1 
0.2927676078988929 716:1 947:1 1015:1 2078:1 2596:1 2866:1 4818:1 5473:1 5645:1 6500:1 7144:1 7566:1 8534:1 9470:1 9970:1 10688:1 15929:1 16293:1 16463:1 18077:1 
0.05941212825738335 716:1 3659:1 7160:1 7307:1 7474:1 7784:1 9970:1 11647:1 12764:1 13882:1 16287:1 16528:1 18390:1 
0.5887440095274945 716:1 6635:1 12917:1 
0.06337887000160872 662:1 716:1 947:1 1844:1 2130:1 2516:1 3431:1 3741:1 5473:1 6227:1 11094:1 12077:1 13834:1 15636:1 16293:1 
0.2034043263005161 716:1 2226:1 2321:1 2798:1 3251:1 5473:1 7144:1 9380:1 9977:1 12142:1 13206:1 13323:1 13835:1 14475:1 14897:1 16787:1 17687:1 
0.06329723231578635 716:1 3967:1 10350:1 13961:1 16528:1 
0.1161181673177034 716:1 2226:1 3270:1 4523:1 4847:1 5755:1 6651:1 8594:1 9013:1 9470:1 9970:1 9972:1 10531:1 10714:1 12363:1 12523:1 13882:1 16225:1 16812:1 17068:1 17774:1 
0.2108576573890991 716:1 929:1 2161:1 2248:1 3464:1 4437:1 4818:1 4906:1 5473:1 8584:1 8948:1 9470:1 9674:1 12550:1 13323:1 13680:1 14770:1 15223:1 15480:1 16165:1 16293:1 16819:1 
0.2848407360600757 716:1 1350:1 4627:1 6522:1 9139:1 9470:1 12096:1 17197:1 17823:1 
0.5080071820404121 716:1 2264:1 4963:1 7144:1 8354:1 9470:1 11483:1 13563:1 13752:1 16528:1 16611:1 16728:1 17268:1 
0.1031690784270305 716:1 1977:1 3098:1 3270:1 4232:1 5473:1 6622:1 7144:1 12680:1 12702:1 12877:1 16528:1 17727:1 18165:1 
0.1308263233953028 716:1 1785:1 1948:1 2047:1 3297:1 3350:1 5275:1 5473:1 6032:1 6227:1 7144:1 8286:1 9466:1 9470:1 10300:1 10995:1 11486:1 12609:1 14940:1 16528:1 18340:1 
0.1820288983921785 665:1 2228:1 2596:1 3590:1 4818:1 5067:1 5473:1 5755:1 5807:1 5829:1 6088:1 7289:1 7640:1 8400:1 9470:1 11486:1 12485:1 15272:1 18805:1 
0.1294567391307135 378:1 716:1 2321:1 3251:1 3659:1 4667:1 4818:1 5473:1 7285:1 7582:1 7814:1 9970:1 11443:1 11697:1 13932:1 14825:1 15782:1 16293:1 17823:1 18645:1 
0.3662474572154952 408:1 716:1 2188:1 2230:1 2818:1 5473:1 5755:1 7144:1 8858:1 9253:1 9470:1 9643:1 9977:1 11844:1 12023:1 12304:1 
0.2174221452404596 716:1 885:1 937:1 1402:1 1423:1 1981:1 2188:1 3297:1 3433:1 3966:1 4071:1 4407:1 5133:1 6088:1 7169:1 7632:1 8431:1 9428:1 9987:1 11179:1 12848:1 13835:1 13979:1 16121:1 16305:1 16610:1 18876:1 
0.1439700552436302 716:1 1423:1 2997:1 3745:1 3823:1 4116:1 4452:1 4818:1 5473:1 6088:1 6227:1 7144:1 7366:1 7486:1 8431:1 8665:1 9253:1 9470:1 9472:1 10743:1 11368:1 12957:1 13323:1 16293:1 16305:1 16519:1 16528:1 16610:1 17142:1 17665:1 18865:1 
0.08311181575668933 169:1 292:1 716:1 903:1 1545:1 2726:1 2910:1 5473:1 6368:1 7144:1 7640:1 9470:1 9674:1 9970:1 17205:1 18205:1 
0.3499740901388711 515:1 716:1 2596:1 2907:1 3063:1 3659:1 4818:1 5209:1 5473:1 5615:1 5645:1 7144:1 9292:1 10571:1 16819:1 18268:1 
0.1602958194335082 716:1 1880:1 2831:1 3659:1 4495:1 4818:1 4907:1 5331:1 5453:1 9470:1 13752:1 13847:1 16355:1 16528:1 17079:1 
0.108817406533633 716:1 947:1 2226:1 2767:1 4269:1 4857:1 4908:1 5294:1 5473:1 6197:1 9376:1 9470:1 13882:1 
0.2357541604953297 716:1 1545:1 2188:1 2577:1 5098:1 5453:1 5473:1 7571:1 8776:1 8823:1 9470:1 11148:1 12592:1 13105:1 13752:1 13943:1 17142:1 17391:1 18739:1 
0.6622075059018854 716:1 2992:1 3231:1 3590:1 5384:1 5473:1 7144:1 9470:1 9843:1 9972:1 10784:1 11844:1 13824:1 14341:1 16528:1 16570:1 
0.3223206931419966 220:1 947:1 2549:1 4633:1 6635:1 6925:1 8954:1 9470:1 10790:1 12363:1 
0.3761758991421902 716:1 1134:1 1420:1 1655:1 3062:1 3297:1 3346:1 3747:1 5473:1 6227:1 7144:1 7640:1 8486:1 8697:1 9139:1 10284:1 11256:1 11857:1 16293:1 18957:1 
0.0033044079022354 314:1 716:1 777:1 2100:1 2321:1 2586:1 3207:1 3270:1 3549:1 5473:1 6217:1 6227:1 6560:1 7484:1 7912:1 8461:1 9256:1 9470:1 9970:1 9972:1 10007:1 11389:1 12008:1 12468:1 13752:1 14684:1 16293:1 16528:1 17694:1 18932:1 
0.4699740471244499 716:1 2005:1 2650:1 3704:1 4071:1 6227:1 7144:1 11443:1 13323:1 15652:1 16611:1 
0.1785203708551199 261:1 515:1 716:1 1303:1 1354:1 1827:1 2420:1 4316:1 4818:1 5473:1 7766:1 8137:1 9470:1 11030:1 11853:1 14520:1 16293:1 17142:1 17311:1 
0.1033862619312674 584:1 716:1 1623:1 2400:1 4315:1 4524:1 5473:1 6041:1 6766:1 8350:1 9470:1 9970:1 11391:1 11486:1 13083:1 13310:1 14563:1 16293:1 16509:1 16528:1 17979:1 18163:1 18369:1 
0.2060864928608401 24:1 716:1 859:1 947:1 1588:1 3349:1 3590:1 4818:1 7106:1 9972:1 10089:1 16528:1 16570:1 
0.2064803529222171 90:1 584:1 716:1 849:1 1346:1 2463:1 3251:1 3297:1 3590:1 4071:1 4956:1 5473:1 9059:1 9354:1 11630:1 15054:1 16293:1 17101:1 17969:1 
0.2255670698916283 224:1 619:1 716:1 1354:1 2228:1 2321:1 2915:1 3456:1 3659:1 4035:1 5201:1 5473:1 5504:1 5693:1 5950:1 7144:1 7239:1 8418:1 9032:1 9139:1 9470:1 9970:1 9972:1 10298:1 12170:1 12525:1 15553:1 15861:1 16293:1 16509:1 16528:1 17184:1 
0.2174906293768463 716:1 1004:1 2109:1 2321:1 2549:1 3577:1 7144:1 9483:1 9498:1 9994:1 15218:1 18123:1 
1 716:1 2230:1 2321:1 2926:1 4802:1 5473:1 6916:1 9972:1 10023:1 10790:1 
0.2091092184048622 428:1 574:1 643:1 716:1 2670:1 4316:1 5453:1 5473:1 5728:1 8687:1 9059:1 10351:1 11844:1 15160:1 15540:1 17197:1 17940:1 18712:1 
0.7045586571493443 584:1 716:1 719:1 1281:1 1313:1 2321:1 2463:1 2831:1 4818:1 5473:1 6227:1 7182:1 8669:1 8856:1 9470:1 9498:1 9970:1 11154:1 11443:1 11711:1 11844:1 13752:1 14228:1 15584:1 16293:1 
0.01988315335189588 584:1 716:1 834:1 2100:1 2226:1 3704:1 7837:1 9470:1 9926:1 10661:1 12897:1 13752:1 13882:1 14777:1 18583:1 
0.2253673059773909 5:1 716:1 2886:1 10133:1 13287:1 16528:1 17398:1 
0.3375373265969169 150:1 456:1 531:1 716:1 719:1 925:1 1423:1 2230:1 2321:1 2596:1 2670:1 2809:1 3049:1 4818:1 5473:1 5956:1 7144:1 9277:1 9470:1 9970:1 9972:1 9994:1 10995:1 11156:1 11443:1 13752:1 15652:1 16293:1 16856:1 16956:1 17554:1 
0.8503095742073351 716:1 7144:1 13563:1 14411:1 
0.1159104595792976 156:1 163:1 447:1 929:1 2226:1 2358:1 4818:1 5134:1 5645:1 5737:1 7144:1 8176:1 9470:1 9972:1 9987:1 10666:1 10811:1 11486:1 16293:1 16528:1 17268:1 
0.3591175355148057 716:1 719:1 1474:1 2321:1 2549:1 5217:1 5473:1 5645:1 6227:1 7032:1 7520:1 9059:1 9172:1 9498:1 10780:1 11208:1 12147:1 12309:1 12985:1 13512:1 16293:1 16305:1 17068:1 17142:1 18142:1 18205:1 18408:1 18664:1 
1 716:1 947:1 2188:1 2596:1 3349:1 3590:1 4818:1 5755:1 5956:1 7106:1 7976:1 9972:1 16570:1 18733:1 
0.4697109672720062 62:1 716:1 882:1 1065:1 2188:1 2226:1 2251:1 4758:1 5065:1 5088:1 5453:1 7144:1 7639:1 10991:1 12622:1 12954:1 14623:1 15221:1 16528:1 18123:1 
0.205721211549511 123:1 716:1 937:1 947:1 1545:1 2228:1 2400:1 3349:1 3590:1 4214:1 4818:1 5473:1 6056:1 6088:1 7032:1 7106:1 7576:1 8311:1 9470:1 9972:1 11242:1 13961:1 15330:1 16440:1 16570:1 17345:1 
0.1862603153301047 716:1 3659:1 5188:1 5473:1 5681:1 6223:1 6925:1 7144:1 7835:1 9470:1 9624:1 10425:1 10827:1 11486:1 11977:1 12344:1 12468:1 12585:1 13287:1 13648:1 13882:1 15360:1 15553:1 15572:1 
0.4171748746087995 1759:1 2321:1 2670:1 2753:1 3350:1 4802:1 4824:1 5217:1 5294:1 7144:1 7564:1 8457:1 8505:1 8971:1 9337:1 10298:1 10466:1 11106:1 11459:1 11486:1 16528:1 18167:1 18205:1 
0.01771936132817906 716:1 947:1 1140:1 2230:1 2321:1 3251:1 3281:1 3659:1 5417:1 7144:1 8211:1 8504:1 9345:1 10236:1 11386:1 16293:1 16546:1 18051:1 
0.1773687472758481 584:1 716:1 1140:1 1151:1 2219:1 2463:1 3251:1 5473:1 6102:1 6644:1 8634:1 9133:1 9437:1 9470:1 11986:1 14563:1 15200:1 16293:1 16422:1 18858:1 
0.7358209851955908 716:1 2544:1 3158:1 3659:1 4818:1 6777:1 6822:1 16293:1 16787:1 16987:1 17068:1 
0.6491309099984181 716:1 719:1 947:1 1021:1 1081:1 2941:1 5473:1 7036:1 7144:1 8128:1 8505:1 9370:1 9470:1 9972:1 11631:1 11639:1 13882:1 14470:1 16543:1 18205:1 
0.4434385925857078 456:1 716:1 1035:1 1140:1 1354:1 2107:1 2321:1 2596:1 3279:1 3659:1 5473:1 6040:1 7144:1 9498:1 9970:1 10230:1 10859:1 12127:1 15160:1 16293:1 17992:1 
0.7575962246249353 342:1 716:1 719:1 947:1 1423:1 1827:1 2120:1 2228:1 2321:1 2941:1 3659:1 4818:1 5194:1 5473:1 5615:1 6056:1 6088:1 7144:1 7222:1 7378:1 8856:1 9332:1 9470:1 9972:1 11443:1 12520:1 15176:1 
1 619:1 716:1 1313:1 1354:1 5473:1 6179:1 9498:1 9624:1 10381:1 13563:1 13824:1 16293:1 
0.03527088165722517 5:1 368:1 716:1 929:1 947:1 1203:1 1438:1 1721:1 1941:1 2321:1 3349:1 4818:1 5270:1 5474:1 6227:1 7144:1 9470:1 9970:1 9972:1 10841:1 11486:1 12897:1 13323:1 15553:1 15982:1 16121:1 16180:1 16299:1 16528:1 18123:1 18351:1 18556:1 
0.1071372172650927 5:1 521:1 716:1 2549:1 2596:1 5296:1 5453:1 5473:1 6697:1 7399:1 7928:1 9470:1 9972:1 11719:1 14977:1 16293:1 16528:1 18805:1 
0.4802807719520893 716:1 1140:1 2188:1 4303:1 4964:1 5509:1 7144:1 7976:1 9470:1 9657:1 9824:1 16528:1 16728:1 
0.120976899128995 515:1 716:1 2188:1 2321:1 4089:1 5638:1 5852:1 8858:1 9998:1 11154:1 11486:1 12985:1 14470:1 15168:1 16528:1 17575:1 18556:1 
0.05824688564436654 716:1 4481:1 8418:1 16528:1 
0.06715114883944198 716:1 785:1 885:1 1736:1 2080:1 2188:1 2321:1 3966:1 4230:1 4627:1 4852:1 5473:1 5585:1 9470:1 9970:1 9972:1 12205:1 12520:1 13824:1 16528:1 16936:1 17435:1 18499:1 18712:1 18814:1 
0.159312279065535 191:1 716:1 866:1 2226:1 2321:1 2397:1 2400:1 2596:1 3049:1 3948:1 4523:1 4756:1 4818:1 5473:1 5681:1 5722:1 6227:1 8311:1 9438:1 9470:1 11448:1 12017:1 12877:1 13563:1 15311:1 16293:1 16470:1 16702:1 17325:1 
0.3330645781810192 716:1 719:1 1420:1 2615:1 2633:1 3285:1 3295:1 4818:1 5473:1 5869:1 6925:1 11377:1 12125:1 12172:1 12675:1 14070:1 16293:1 16528:1 17197:1 
0.2290157059942262 626:1 716:1 1354:1 2633:1 2884:1 3270:1 3423:1 4684:1 5473:1 7144:1 9460:1 9470:1 9477:1 9498:1 9654:1 9970:1 9998:1 10310:1 10311:1 12174:1 12537:1 13171:1 14109:1 14354:1 14563:1 14999:1 16293:1 18199:1 
0.02010016237095055 716:1 1385:1 1622:1 3270:1 4054:1 5473:1 6152:1 6227:1 6293:1 7144:1 7248:1 9421:1 9470:1 10871:1 11853:1 11933:1 16095:1 16178:1 16293:1 16772:1 18836:1 
1 258:1 716:1 9470:1 9972:1 10991:1 11178:1 11791:1 13835:1 13882:1 16528:1 18932:1 
0.9381196701118301 337:1 456:1 716:1 2941:1 4758:1 5453:1 5473:1 5681:1 5709:1 6295:1 7360:1 7488:1 9264:1 9470:1 9970:1 14563:1 14861:1 16131:1 16293:1 18712:1 
0.1328839614951667 716:1 885:1 4921:1 5027:1 5287:1 7428:1 9059:1 9470:1 10337:1 12300:1 12468:1 14925:1 16042:1 16076:1 16528:1 17142:1 17197:1 
0.8907167531885902 716:1 885:1 3146:1 5473:1 7144:1 7285:1 8928:1 9347:1 9998:1 10618:1 16293:1 16444:1 17142:1 18604:1 
0.5276331473727717 434:1 716:1 3251:1 4818:1 5755:1 6088:1 7954:1 9972:1 13882:1 13996:1 16422:1 
1 716:1 2151:1 2193:1 2321:1 5755:1 8553:1 12362:1 12480:1 13512:1 13563:1 13824:1 18499:1 
0.3604913435257859 716:1 947:1 1370:1 2596:1 3251:1 3655:1 5473:1 5950:1 6361:1 7744:1 9470:1 10703:1 11486:1 11950:1 12615:1 12803:1 16528:1 
1 716:1 810:1 2596:1 2613:1 2896:1 4818:1 13563:1 
0.1164899775901926 2321:1 3417:1 15336:1 15480:1 
0.09220068741577935 253:1 716:1 885:1 1614:1 1939:1 2400:1 2572:1 3297:1 4285:1 4758:1 6102:1 6227:1 7144:1 7298:1 7778:1 9582:1 10582:1 13882:1 14013:1 16293:1 16528:1 18096:1 18123:1 
0.375118820982658 5:1 716:1 1774:1 2321:1 2596:1 3349:1 4196:1 5453:1 5473:1 7428:1 9470:1 11486:1 12441:1 16528:1 17197:1 
0.1495509043423858 716:1 911:1 937:1 947:1 954:1 2100:1 2226:1 2321:1 2596:1 3705:1 4030:1 4278:1 5473:1 5960:1 6227:1 6361:1 6651:1 7032:1 8194:1 8431:1 9470:1 9972:1 9994:1 11486:1 15160:1 17940:1 
0.1632760561537072 182:1 716:1 1050:1 2226:1 4667:1 4818:1 6595:1 7048:1 7144:1 7654:1 7753:1 9470:1 11166:1 12221:1 15059:1 16293:1 18011:1 
0.04856022914820638 716:1 1597:1 2372:1 3088:1 3590:1 6925:1 7144:1 9470:1 9970:1 10016:1 10732:1 11459:1 16528:1 
0.3017742199332313 443:1 716:1 1840:1 3704:1 7144:1 9470:1 10981:1 17338:1 
0.2464502397755132 584:1 716:1 719:1 1801:1 2321:1 2941:1 3655:1 5209:1 5334:1 5473:1 10264:1 11486:1 12076:1 13107:1 15584:1 16293:1 17044:1 18427:1 
0.01428005982922667 716:1 885:1 1232:1 2188:1 3017:1 3059:1 4411:1 5295:1 5473:1 6227:1 7144:1 9470:1 9972:1 10707:1 12125:1 12550:1 13161:1 13956:1 14659:1 15553:1 16293:1 16611:1 17051:1 17917:1 
0.1218870089328084 716:1 734:1 885:1 952:1 2036:1 2149:1 2188:1 2226:1 2537:1 3836:1 3964:1 4859:1 5344:1 5347:1 5564:1 5902:1 6133:1 6705:1 6775:1 6962:1 7144:1 7437:1 9470:1 9998:1 10376:1 10644:1 11926:1 12371:1 12889:1 13295:1 13648:1 14036:1 14770:1 15001:1 15360:1 16528:1 16728:1 16894:1 17738:1 
0.007175037782760394 716:1 947:1 1052:1 2036:1 2188:1 3402:1 3752:1 4299:1 4442:1 5473:1 5721:1 6821:1 7144:1 8054:1 8140:1 12190:1 14318:1 14534:1 16528:1 16771:1 17142:1 18769:1 
1 716:1 1190:1 2985:1 5049:1 5279:1 6227:1 7285:1 14423:1 16956:1 
0.3026446629630452 716:1 5473:1 5907:1 6227:1 7484:1 9624:1 13563:1 14470:1 14646:1 16263:1 16293:1 17630:1 
0.02594980864601343 476:1 716:1 3659:1 4370:1 4818:1 4947:1 5473:1 5564:1 5950:1 6227:1 7183:1 8246:1 9376:1 9470:1 9972:1 12221:1 13835:1 15815:1 16528:1 
0.07834996218412338 224:1 515:1 716:1 1710:1 2321:1 3251:1 3270:1 3659:1 4818:1 5356:1 5473:1 6088:1 8161:1 9470:1 9972:1 10604:1 10738:1 11932:1 12539:1 13518:1 13563:1 16095:1 16803:1 18712:1 
0.01209658332152369 716:1 925:1 2321:1 4201:1 5473:1 6723:1 7285:1 8449:1 9470:1 11633:1 11713:1 12174:1 12468:1 12520:1 13660:1 13824:1 13979:1 15001:1 16293:1 17614:1 18456:1 18604:1 
0.2572157472512634 602:1 716:1 1827:1 2230:1 3232:1 3690:1 5014:1 5453:1 5473:1 6030:1 6762:1 7144:1 8289:1 9470:1 9682:1 10477:1 10579:1 11266:1 13961:1 15427:1 16293:1 16305:1 17197:1 18865:1 
0.6135378298107427 372:1 716:1 885:1 7144:1 10422:1 11232:1 12125:1 12840:1 
0.3973674219069348 313:1 381:1 716:1 1133:1 2188:1 2622:1 3590:1 3752:1 4116:1 5473:1 6168:1 6227:1 7144:1 7484:1 7632:1 11486:1 11514:1 11734:1 13752:1 15007:1 16293:1 17068:1 
0.4803557470105885 150:1 647:1 716:1 885:1 1736:1 2321:1 2941:1 5473:1 7285:1 9470:1 9656:1 9972:1 10671:1 11443:1 11457:1 12099:1 13882:1 14222:1 16293:1 16330:1 16528:1 16813:1 16982:1 17197:1 
0.04696191555271644 156:1 571:1 716:1 2188:1 2226:1 2988:1 3841:1 5746:1 7854:1 10447:1 10582:1 16528:1 
0.1667046814829761 584:1 716:1 719:1 826:1 2321:1 2463:1 3613:1 3659:1 4963:1 5473:1 6088:1 7309:1 8776:1 9470:1 9481:1 9843:1 11276:1 12125:1 12257:1 16293:1 
0.1295921587950112 515:1 533:1 643:1 716:1 793:1 947:1 1105:1 1553:1 1778:1 2188:1 2549:1 4505:1 5473:1 5727:1 6797:1 7144:1 8450:1 9111:1 9371:1 9380:1 9470:1 9987:1 10811:1 10852:1 11844:1 13835:1 14470:1 15754:1 16463:1 16890:1 18533:1 
0.5519054443408832 515:1 716:1 885:1 2188:1 2228:1 2321:1 2596:1 3251:1 3984:1 6088:1 6169:1 9470:1 9972:1 10381:1 11466:1 12552:1 13882:1 14770:1 15490:1 16299:1 16305:1 16528:1 17210:1 18123:1 
0.02993036550851718 220:1 327:1 541:1 716:1 1844:1 2188:1 2321:1 2622:1 3611:1 3659:1 5772:1 6227:1 6797:1 7144:1 9003:1 9970:1 11287:1 13882:1 16042:1 16528:1 16960:1 17072:1 17142:1 
0.1335118964368028 716:1 908:1 2928:1 4264:1 4736:1 5221:1 5283:1 6623:1 11876:1 13179:1 13256:1 13523:1 13648:1 15116:1 15343:1 15360:1 15921:1 16455:1 
1 716:1 4042:1 5651:1 7144:1 7440:1 10582:1 16293:1 16528:1 
0.6110686208243816 521:1 716:1 7144:1 8504:1 17550:1 
0.05852321294002015 716:1 1026:1 1107:1 2206:1 2328:1 2744:1 5462:1 9470:1 12304:1 13048:1 14699:1 17478:1 18914:1 
0.2090986356631916 716:1 1354:1 2400:1 4071:1 5473:1 5603:1 6227:1 7144:1 7322:1 9470:1 9970:1 12125:1 12228:1 12304:1 13882:1 14516:1 16293:1 16463:1 16528:1 16956:1 
0.03505513936459005 716:1 947:1 998:1 1494:1 2321:1 3880:1 4963:1 5079:1 5140:1 5260:1 5445:1 5473:1 6227:1 7144:1 7557:1 8391:1 9077:1 12676:1 13323:1 13512:1 13821:1 14563:1 16293:1 16960:1 17083:1 17142:1 17947:1 
0.5726579983952395 619:1 865:1 947:1 1339:1 1423:1 2596:1 2707:1 3880:1 4758:1 4818:1 5393:1 5473:1 5707:1 6227:1 7145:1 7254:1 9498:1 9970:1 9972:1 13512:1 15494:1 16528:1 
0.1471589661174842 303:1 584:1 719:1 947:1 1827:1 2463:1 2531:1 3297:1 5453:1 5930:1 9059:1 9970:1 16252:1 16528:1 17228:1 
0.09571747768049251 716:1 1394:1 2228:1 3554:1 5051:1 5453:1 5473:1 6879:1 7428:1 9470:1 14475:1 15650:1 15923:1 16463:1 17197:1 
1 584:1 716:1 2230:1 2407:1 2596:1 2992:1 4315:1 4933:1 5473:1 9470:1 9785:1 9910:1 9970:1 10643:1 11021:1 16293:1 16813:1 
0.3800806785634179 716:1 719:1 732:1 2321:1 2407:1 2596:1 3251:1 3590:1 4818:1 5217:1 5473:1 5645:1 6762:1 9370:1 9470:1 9970:1 11204:1 11479:1 12067:1 13835:1 14825:1 14861:1 16528:1 16570:1 17197:1 18086:1 18805:1 
0.4395541016411069 716:1 2596:1 3049:1 4964:1 6457:1 6835:1 7474:1 9470:1 12464:1 
0.3341408615114833 716:1 1402:1 1423:1 3464:1 4135:1 7144:1 9470:1 12905:1 13739:1 13894:1 
0.2484269030091502 716:1 2020:1 2226:1 4019:1 4963:1 5209:1 5264:1 5473:1 6056:1 6817:1 8255:1 12446:1 12681:1 13882:1 14548:1 15684:1 
0.3459545993734734 224:1 373:1 716:1 1906:1 2226:1 2321:1 2803:1 2992:1 4818:1 4917:1 5473:1 6088:1 6408:1 6621:1 7285:1 9470:1 9972:1 10023:1 10231:1 10784:1 11119:1 11147:1 11659:1 12452:1 12942:1 12985:1 13882:1 16293:1 16528:1 16855:1 
0.3902104066433375 716:1 2140:1 2226:1 2228:1 3040:1 3270:1 6885:1 7105:1 7712:1 8856:1 9153:1 10618:1 11486:1 12153:1 14770:1 15162:1 15375:1 16528:1 16787:1 
0.2949192611631666 716:1 947:1 1423:1 1431:1 1438:1 2321:1 2926:1 3073:1 3764:1 4655:1 5473:1 7954:1 8101:1 9658:1 9970:1 9972:1 10388:1 10527:1 12027:1 12468:1 13748:1 14125:1 14770:1 14845:1 15540:1 15650:1 16293:1 16528:1 
0.0653135647852903 521:1 702:1 716:1 1899:1 2188:1 2549:1 3520:1 3577:1 4412:1 5473:1 6998:1 7344:1 7487:1 8045:1 8101:1 8104:1 9470:1 10383:1 10790:1 13940:1 16293:1 17142:1 17433:1 17968:1 18910:1 
0.09617752923954556 619:1 716:1 1313:1 1354:1 2836:1 4963:1 5473:1 7105:1 8549:1 9682:1 9750:1 9970:1 11098:1 13563:1 14295:1 16048:1 16099:1 
0.402286953359604 716:1 947:1 3251:1 3756:1 5473:1 5950:1 6227:1 7892:1 8032:1 9541:1 9998:1 11154:1 11486:1 13752:1 
0.06028829449807755 129:1 716:1 947:1 2463:1 2596:1 4818:1 5090:1 8975:1 9083:1 9470:1 11154:1 11317:1 11601:1 15059:1 15626:1 15879:1 16425:1 16528:1 18556:1 
0.2591853701681056 716:1 2321:1 4718:1 7144:1 10304:1 12468:1 14356:1 15659:1 16589:1 17333:1 
0.5679983141739492 716:1 2458:1 3603:1 5473:1 7144:1 7285:1 8991:1 9470:1 9970:1 11486:1 12520:1 14250:1 
0.09162069491096038 716:1 2151:1 2321:1 3577:1 3836:1 7144:1 7770:1 10018:1 11657:1 12138:1 13818:1 16528:1 
0.2553543936352545 224:1 716:1 1805:1 2850:1 3659:1 4963:1 5266:1 5453:1 5473:1 6227:1 6361:1 6762:1 8967:1 9970:1 11486:1 12046:1 12065:1 12353:1 13835:1 15273:1 16293:1 16528:1 17197:1 
0.5772145892359932 716:1 947:1 1346:1 2228:1 3091:1 3531:1 3540:1 4956:1 7144:1 8161:1 8858:1 9116:1 9470:1 9972:1 12985:1 16528:1 16733:1 
0.3306673179582944 573:1 716:1 1729:1 1858:1 2188:1 3659:1 4818:1 4958:1 6012:1 7144:1 7160:1 7516:1 9059:1 9470:1 10871:1 11647:1 12768:1 16185:1 16293:1 16528:1 17142:1 18805:1 
7.237830199618701e-005 716:1 897:1 1151:1 1312:1 1827:1 2188:1 2941:1 5473:1 5795:1 6361:1 6987:1 7144:1 8429:1 8821:1 9218:1 9470:1 9972:1 11211:1 11341:1 12871:1 12883:1 14083:1 15409:1 15475:1 16293:1 16792:1 18496:1 
0.1563564282120502 716:1 1467:1 1655:1 2047:1 2230:1 4089:1 5033:1 7144:1 7352:1 8088:1 9470:1 10061:1 11844:1 13382:1 13932:1 14195:1 16528:1 17733:1 
0.5359880057993964 456:1 515:1 716:1 2188:1 5473:1 5874:1 7784:1 7976:1 9470:1 9972:1 13563:1 13882:1 14777:1 15553:1 16528:1 16802:1 17538:1 
1 716:1 2226:1 9074:1 11486:1 13753:1 16293:1 
0.6381768742822076 716:1 879:1 1468:1 2321:1 3091:1 3704:1 3917:1 6572:1 7144:1 9970:1 10941:1 12468:1 
0.0761715036157871 1268:1 2228:1 2941:1 3836:1 5473:1 7668:1 8227:1 9470:1 10948:1 15480:1 15523:1 18739:1 18759:1 
0.0955105400782074 536:1 716:1 947:1 1354:1 2544:1 2596:1 5431:1 5473:1 5697:1 5709:1 6227:1 9450:1 9470:1 9972:1 12046:1 12722:1 12985:1 16528:1 18712:1 
0.2154227022734755 716:1 2226:1 2941:1 3060:1 3297:1 4056:1 5016:1 5473:1 6227:1 9876:1 12911:1 13049:1 16293:1 16528:1 18899:1 
0.3146043414307696 66:1 109:1 716:1 2228:1 2650:1 3263:1 4445:1 4928:1 4942:1 4963:1 5209:1 5473:1 7144:1 7157:1 7289:1 7827:1 8306:1 9437:1 9998:1 10105:1 11609:1 13824:1 16293:1 16528:1 
0.3175843565583464 208:1 716:1 1404:1 1440:1 2430:1 2779:1 3297:1 4063:1 4818:1 5059:1 5473:1 7144:1 9253:1 9470:1 12107:1 15455:1 16293:1 16528:1 16733:1 17969:1 18535:1 18745:1 
0.2000774633225443 929:1 1844:1 2463:1 4071:1 5453:1 5473:1 6227:1 7144:1 9470:1 9498:1 10811:1 11486:1 13211:1 13882:1 15899:1 16106:1 18123:1 18647:1 
0.175301836293799 716:1 986:1 1167:1 4094:1 4739:1 5221:1 6241:1 9470:1 15298:1 18404:1 
0.2991068699903451 716:1 1736:1 2321:1 2596:1 3741:1 5473:1 5755:1 7032:1 7526:1 9470:1 9970:1 10846:1 12134:1 12416:1 13882:1 15982:1 18600:1 
0.03198128611554493 223:1 716:1 7144:1 9470:1 11836:1 15685:1 16220:1 16258:1 16528:1 18806:1 
0.1666665500797131 716:1 1190:1 2321:1 2596:1 2941:1 4920:1 5107:1 5279:1 5473:1 7419:1 14673:1 
1 716:1 2321:1 4627:1 5473:1 10531:1 14644:1 
0.1097611845274771 643:1 716:1 1423:1 2359:1 2469:1 3086:1 4818:1 4942:1 5275:1 5473:1 5519:1 5950:1 6227:1 6565:1 6917:1 7470:1 7616:1 8987:1 9625:1 12468:1 12863:1 14070:1 16076:1 16528:1 17142:1 17197:1 18123:1 
0.3020038610886356 947:1 1313:1 2213:1 2400:1 3492:1 4818:1 5473:1 6885:1 8095:1 8311:1 9345:1 9970:1 9998:1 12153:1 12254:1 12770:1 13127:1 14470:1 15059:1 15540:1 15662:1 17142:1 
0.04852472484331253 209:1 716:1 2151:1 2188:1 2321:1 2926:1 4035:1 4818:1 6088:1 6194:1 7144:1 7541:1 8586:1 9470:1 12531:1 13668:1 13835:1 13882:1 14405:1 16293:1 16819:1 16956:1 18123:1 
0.118373989251301 394:1 619:1 716:1 2228:1 2321:1 4644:1 7144:1 7526:1 9059:1 12985:1 13085:1 13563:1 15435:1 15553:1 15982:1 
0.02469577128133504 291:1 716:1 1313:1 1423:1 2008:1 3086:1 3270:1 3554:1 6227:1 6475:1 7160:1 8816:1 8856:1 9686:1 9972:1 13618:1 16528:1 
0.9337682609561825 716:1 947:1 5950:1 6194:1 8088:1 9970:1 9972:1 13835:1 13990:1 14892:1 15814:1 16570:1 
0.0324112894775092 716:1 971:1 1418:1 2744:1 2755:1 3354:1 4176:1 4736:1 5221:1 6111:1 6535:1 7431:1 9470:1 10596:1 11577:1 13048:1 14374:1 15226:1 16786:1 17996:1 18851:1 18914:1 
0.04248312867320777 256:1 716:1 732:1 4450:1 4761:1 4818:1 5453:1 5473:1 5917:1 7990:1 9470:1 11198:1 
0.3180731783860289 716:1 774:1 3091:1 5473:1 6925:1 7144:1 7394:1 8858:1 9275:1 9470:1 9533:1 9970:1 10811:1 11486:1 12129:1 12550:1 13563:1 13882:1 16463:1 16528:1 
0.1845175010875103 515:1 716:1 1844:1 2596:1 2809:1 3597:1 4316:1 4521:1 5294:1 5451:1 5473:1 6969:1 9383:1 9470:1 10784:1 10976:1 12468:1 13043:1 13263:1 13637:1 15160:1 16150:1 16528:1 
0.2938159789622294 716:1 929:1 1420:1 1633:1 2226:1 3075:1 3462:1 5473:1 6527:1 6587:1 7036:1 7144:1 9139:1 9470:1 10129:1 10742:1 13824:1 16293:1 16956:1 18593:1 
0.1533599226164069 224:1 421:1 716:1 925:1 2291:1 2321:1 4743:1 5390:1 5473:1 6430:1 10198:1 11423:1 13563:1 15411:1 17520:1 17856:1 
0.4197682496462133 716:1 4928:1 7144:1 7157:1 7222:1 8340:1 9998:1 10712:1 11802:1 11853:1 12106:1 12363:1 12905:1 12949:1 13504:1 16076:1 16293:1 16305:1 16330:1 16357:1 
0.5962255517702494 716:1 917:1 947:1 1262:1 1933:1 2188:1 2488:1 3968:1 5473:1 5645:1 5651:1 6361:1 7144:1 9470:1 10871:1 13739:1 
0.1751040883316284 220:1 327:1 716:1 728:1 2349:1 2549:1 3251:1 3349:1 5073:1 5473:1 6088:1 7289:1 8101:1 9253:1 9470:1 9972:1 13882:1 14913:1 16422:1 16956:1 17142:1 17632:1 
0.009551871831360827 716:1 947:1 2094:1 2151:1 2228:1 2321:1 2470:1 3196:1 4411:1 4963:1 6088:1 6399:1 7093:1 7144:1 8993:1 9059:1 9470:1 9994:1 10337:1 11774:1 12023:1 13563:1 15105:1 15443:1 16528:1 16971:1 
0.338122081404516 247:1 476:1 584:1 653:1 716:1 947:1 1164:1 2463:1 2596:1 2793:1 3270:1 3349:1 3590:1 5132:1 5968:1 16293:1 
0.06204497503448334 716:1 2228:1 2321:1 2596:1 2753:1 3251:1 4071:1 4666:1 5130:1 5453:1 6093:1 8683:1 8751:1 9443:1 9972:1 11119:1 11147:1 11459:1 13563:1 13882:1 14572:1 15979:1 16528:1 
0.124490992293836 716:1 1827:1 2142:1 2321:1 3658:1 5473:1 5495:1 7767:1 8940:1 9377:1 11956:1 12468:1 14861:1 16293:1 
0.04390187917247008 716:1 3659:1 7144:1 7784:1 8088:1 9370:1 9498:1 9970:1 13752:1 15027:1 17197:1 18090:1 18678:1 
0.4452384275436303 716:1 1365:1 2228:1 2321:1 2596:1 2809:1 3220:1 3880:1 4296:1 4818:1 5049:1 5645:1 7144:1 7285:1 7827:1 8176:1 9470:1 9970:1 10582:1 12221:1 13323:1 14098:1 14861:1 15891:1 16570:1 17901:1 18123:1 18805:1 
0.02336669891371208 716:1 885:1 2188:1 3430:1 3887:1 3958:1 10447:1 12172:1 16076:1 17142:1 18123:1 
0.4159950301175929 716:1 3651:1 4640:1 4708:1 4818:1 5473:1 5666:1 6227:1 7144:1 8469:1 15091:1 16293:1 16993:1 17917:1 
0.2677878611513439 716:1 2596:1 2742:1 2941:1 3297:1 5473:1 5783:1 7144:1 8173:1 10995:1 13835:1 14825:1 17733:1 
0.5111160206976582 284:1 716:1 2230:1 2321:1 2767:1 2966:1 3251:1 7289:1 7784:1 8391:1 9470:1 9654:1 9970:1 9987:1 12023:1 14383:1 14709:1 15199:1 16819:1 17024:1 17142:1 17656:1 
0.3550065805475788 476:1 716:1 885:1 947:1 1151:1 1867:1 2226:1 2230:1 2321:1 2596:1 2941:1 3010:1 3577:1 5473:1 5649:1 5755:1 6227:1 7144:1 8088:1 8971:1 9470:1 9751:1 9970:1 9972:1 10125:1 10547:1 10811:1 12100:1 12285:1 12374:1 12697:1 13752:1 13882:1 14069:1 15294:1 16293:1 16330:1 16463:1 16570:1 17179:1 
1 716:1 3297:1 6925:1 7144:1 8730:1 12459:1 13818:1 16856:1 
0.6947687427838258 716:1 947:1 1046:1 1844:1 6818:1 7144:1 9970:1 10559:1 10855:1 13364:1 18341:1 
0.03246710267640864 716:1 951:1 1354:1 1647:1 4115:1 4438:1 5866:1 6941:1 7144:1 8992:1 9470:1 9498:1 9987:1 12023:1 13699:1 16293:1 17369:1 
0.3339175497061994 716:1 4627:1 5473:1 7686:1 7851:1 7978:1 9970:1 16330:1 17969:1 18043:1 
1 716:1 2321:1 3350:1 3578:1 9264:1 9972:1 15945:1 
0.1232363722506751 716:1 746:1 947:1 1830:1 2228:1 2596:1 3273:1 4818:1 4824:1 5473:1 7144:1 8431:1 9470:1 9987:1 9994:1 11844:1 11853:1 13903:1 14595:1 14742:1 16042:1 16252:1 16293:1 16528:1 16570:1 16960:1 17314:1 17695:1 
0.1851594461518466 716:1 925:1 2230:1 2321:1 2941:1 3251:1 3659:1 5473:1 6056:1 6227:1 7484:1 7680:1 8952:1 9470:1 9970:1 9972:1 14379:1 16293:1 16528:1 17960:1 
0.007321864704127393 521:1 619:1 716:1 1217:1 1354:1 2335:1 2596:1 3251:1 3880:1 4005:1 5473:1 7505:1 8691:1 9125:1 9470:1 11486:1 12437:1 12834:1 13752:1 15059:1 16528:1 
0.3980660329932555 716:1 1260:1 3518:1 4627:1 5473:1 7851:1 9994:1 16271:1 
0.2102722548711081 716:1 1891:1 6032:1 9830:1 9970:1 11486:1 16317:1 16528:1 
0.3831825871016438 96:1 716:1 2228:1 2321:1 5057:1 5177:1 6461:1 7526:1 9059:1 9470:1 9970:1 10995:1 13897:1 18180:1 
0.1743981019183309 716:1 893:1 947:1 1420:1 1946:1 2831:1 3167:1 3929:1 4476:1 4818:1 4928:1 4964:1 5473:1 6227:1 7144:1 7782:1 8076:1 9994:1 10811:1 12075:1 13323:1 14353:1 15307:1 16293:1 16528:1 18260:1 18555:1 
0.1304932472102059 716:1 1616:1 1793:1 2612:1 5221:1 6772:1 7095:1 9885:1 18851:1 
0.1945000834656016 716:1 1212:1 1339:1 1988:1 2366:1 3969:1 4818:1 5473:1 6227:1 7021:1 7144:1 7421:1 9470:1 9970:1 10484:1 13882:1 15511:1 16528:1 18518:1 
0.09206810976895083 242:1 716:1 1273:1 3086:1 3448:1 4818:1 5382:1 5453:1 5473:1 7144:1 7673:1 10115:1 10742:1 11084:1 13563:1 14861:1 16293:1 16528:1 17242:1 18097:1 
0.07180843581119784 209:1 526:1 716:1 2321:1 3768:1 5666:1 7144:1 7763:1 8489:1 8971:1 9970:1 9972:1 11486:1 13512:1 13835:1 16106:1 17068:1 17969:1 18123:1 18556:1 
0.1486695256221738 716:1 1126:1 6139:1 7645:1 9470:1 10202:1 10594:1 14231:1 
0.2609554239963108 716:1 885:1 928:1 2228:1 2622:1 3641:1 5453:1 5473:1 5645:1 7144:1 7865:1 11486:1 12317:1 12454:1 14232:1 16293:1 
0.07668811383725793 638:1 716:1 732:1 2321:1 3251:1 3409:1 5473:1 6983:1 7144:1 9470:1 9970:1 11791:1 12304:1 13752:1 14320:1 16293:1 16528:1 16956:1 17545:1 
0.2351190419808484 456:1 716:1 2230:1 2321:1 2596:1 2805:1 4758:1 5453:1 5945:1 7144:1 7753:1 8399:1 8705:1 9470:1 9945:1 9984:1 11099:1 11844:1 13882:1 15315:1 15898:1 15979:1 16293:1 16528:1 16733:1 17548:1 
0.498877509914898 716:1 947:1 2230:1 2955:1 3659:1 4497:1 4963:1 5473:1 5559:1 6228:1 7647:1 9383:1 9744:1 11631:1 12996:1 13835:1 14746:1 16293:1 18163:1 18175:1 18205:1 
0.2237360151314407 620:1 1095:1 2226:1 2228:1 2321:1 2633:1 3251:1 3516:1 4071:1 4818:1 5473:1 6592:1 7763:1 8215:1 8592:1 8858:1 9470:1 15131:1 17350:1 18630:1 
1 716:1 2230:1 6088:1 7144:1 10304:1 12075:1 16463:1 
0.2723556154286178 716:1 743:1 2321:1 3659:1 3907:1 4818:1 5069:1 5473:1 5645:1 5666:1 6227:1 7879:1 9470:1 9843:1 10640:1 11617:1 13512:1 13882:1 16379:1 16528:1 
0.0899021106293426 258:1 515:1 716:1 3285:1 4655:1 4818:1 5473:1 7036:1 7144:1 7184:1 8734:1 9470:1 9970:1 9972:1 10182:1 10811:1 10991:1 11175:1 11486:1 13835:1 14689:1 16293:1 16330:1 17239:1 
0.7252467526974191 716:1 4139:1 7144:1 8023:1 13752:1 15652:1 
0.3714147857557651 716:1 1140:1 2188:1 2226:1 3710:1 4627:1 4818:1 5473:1 6684:1 7415:1 8858:1 8971:1 9253:1 9848:1 9970:1 9972:1 11154:1 11486:1 12170:1 16293:1 16305:1 16330:1 16570:1 18556:1 
1 571:1 716:1 883:1 2227:1 3091:1 7144:1 
0.3972355716746371 322:1 716:1 951:1 1345:1 2596:1 3049:1 5143:1 5473:1 6591:1 6643:1 7144:1 9074:1 9470:1 9843:1 9972:1 10817:1 10953:1 10976:1 12720:1 12905:1 13512:1 13824:1 16293:1 16528:1 16570:1 17827:1 18477:1 
0.3932712325931088 716:1 2188:1 2321:1 3251:1 3433:1 3577:1 4035:1 4818:1 5172:1 5453:1 5473:1 6762:1 7144:1 7285:1 8648:1 9380:1 9470:1 9972:1 10045:1 10995:1 11853:1 15828:1 16293:1 16528:1 16944:1 17820:1 18586:1 
0.8749638367339719 716:1 947:1 1420:1 1423:1 1471:1 2230:1 3394:1 3464:1 4928:1 5217:1 5294:1 5473:1 6045:1 6293:1 7183:1 9470:1 10936:1 17197:1 
0.4142329455432396 584:1 716:1 1275:1 1879:1 2596:1 3659:1 5473:1 6227:1 7273:1 9370:1 9970:1 10462:1 12309:1 12437:1 12985:1 13512:1 14900:1 15176:1 15203:1 16293:1 17219:1 17879:1 
0.5348073912000665 531:1 716:1 1423:1 2230:1 2430:1 4495:1 4521:1 4818:1 4927:1 5963:1 6227:1 6424:1 7144:1 7188:1 7784:1 8856:1 9470:1 9498:1 9682:1 9970:1 9972:1 10141:1 10380:1 10790:1 10803:1 13512:1 16528:1 16688:1 18499:1 
0.28135268533611 716:1 2181:1 2230:1 2463:1 4818:1 5473:1 5956:1 6088:1 7285:1 9082:1 9470:1 9970:1 11457:1 13882:1 16293:1 16760:1 17356:1 
1 716:1 1059:1 1623:1 2228:1 2596:1 2966:1 5473:1 6227:1 7051:1 7144:1 9972:1 11486:1 13599:1 13835:1 14644:1 14825:1 16293:1 
0.92154119967417 716:1 947:1 2430:1 2596:1 2941:1 5473:1 10120:1 10137:1 11950:1 12169:1 16528:1 
0.02801127382258964 716:1 2941:1 3270:1 3724:1 5473:1 7428:1 9244:1 9970:1 12279:1 12468:1 15602:1 16293:1 16528:1 16742:1 17024:1 
0.3263815647250634 716:1 2099:1 2228:1 3297:1 3342:1 5473:1 7779:1 9582:1 10009:1 10300:1 11486:1 13882:1 16293:1 16528:1 17238:1 17969:1 18123:1 
0.1275450137649915 146:1 716:1 885:1 947:1 1526:1 2087:1 3350:1 3659:1 3875:1 3880:1 4120:1 5453:1 5473:1 6129:1 6258:1 6679:1 8730:1 8864:1 9154:1 9460:1 9470:1 10381:1 11444:1 13752:1 14072:1 16528:1 17079:1 
0.0593959469312986 716:1 1046:1 2008:1 2918:1 3613:1 5073:1 5473:1 9470:1 11981:1 12250:1 14871:1 15142:1 16293:1 16528:1 17083:1 
0.01715096904252422 515:1 716:1 2291:1 2321:1 4818:1 5473:1 5645:1 6227:1 7144:1 8860:1 9337:1 9470:1 9846:1 12304:1 14320:1 16185:1 16293:1 16463:1 16528:1 16956:1 18586:1 
1 716:1 2321:1 3659:1 9970:1 16065:1 16490:1 17184:1 
0.1209398490454438 716:1 2230:1 2260:1 2291:1 6532:1 7144:1 7894:1 8512:1 9470:1 12829:1 16528:1 17733:1 
0.3248481390976893 716:1 2941:1 5673:1 7144:1 8211:1 9970:1 
0.0007907440687990959 716:1 974:1 1100:1 1513:1 2151:1 2458:1 2831:1 3091:1 3118:1 3251:1 3880:1 4398:1 4818:1 5664:1 6101:1 6416:1 7144:1 7440:1 9470:1 10644:1 12014:1 12873:1 16293:1 16528:1 16570:1 
0.2625608621203556 685:1 716:1 2924:1 3204:1 3341:1 4202:1 5363:1 5802:1 5950:1 6227:1 6361:1 7144:1 9470:1 12940:1 13507:1 13656:1 13896:1 16293:1 16528:1 18230:1 
0.7454711562964782 268:1 386:1 716:1 6140:1 7144:1 7616:1 9972:1 10381:1 10510:1 13882:1 16076:1 16528:1 16733:1 17158:1 
0.1571590097819239 600:1 716:1 2228:1 2615:1 3101:1 3464:1 3900:1 4818:1 7144:1 7692:1 8580:1 8843:1 9470:1 9593:1 9998:1 10618:1 13752:1 15147:1 16610:1 
0.2086723775902487 716:1 2546:1 2596:1 2795:1 3094:1 3419:1 3659:1 3704:1 4396:1 4963:1 5453:1 5473:1 7753:1 11119:1 12277:1 12468:1 12907:1 14222:1 14475:1 16076:1 16528:1 18805:1 
0.04663730894737069 716:1 1477:1 2463:1 3880:1 5158:1 6056:1 8856:1 9470:1 9970:1 9972:1 13323:1 13692:1 14770:1 
0.03538851656682106 69:1 329:1 716:1 1140:1 2321:1 2926:1 5453:1 5473:1 5649:1 6227:1 6920:1 7287:1 8504:1 14048:1 16293:1 16330:1 
0.0332732204932736 386:1 716:1 1729:1 2188:1 2831:1 2881:1 2926:1 3270:1 3659:1 4964:1 5294:1 5473:1 5950:1 6056:1 6459:1 6776:1 7144:1 9470:1 9562:1 9693:1 9970:1 9972:1 10339:1 10381:1 10811:1 11755:1 13882:1 15176:1 16293:1 16528:1 16819:1 
0.1617763156854572 5:1 716:1 895:1 947:1 1281:1 2228:1 2693:1 3057:1 4963:1 5473:1 5645:1 6227:1 7846:1 9370:1 9783:1 9970:1 12799:1 14595:1 15925:1 16528:1 17142:1 17184:1 18749:1 18925:1 
0.1301379582748184 541:1 716:1 2321:1 2407:1 5645:1 6363:1 7144:1 15059:1 
0.324868764306158 209:1 716:1 863:1 1698:1 2321:1 4035:1 4928:1 6274:1 8893:1 16528:1 18556:1 
0.05369067467294156 716:1 947:1 1029:1 2226:1 2331:1 3590:1 5473:1 7787:1 9900:1 9987:1 12168:1 
0.1280299743345598 85:1 91:1 716:1 947:1 1420:1 2400:1 2510:1 3176:1 4818:1 4942:1 5294:1 5669:1 7144:1 7719:1 9347:1 9470:1 10047:1 10827:1 11369:1 12430:1 16528:1 16787:1 17088:1 17412:1 18032:1 18123:1 18664:1 
0.707317009997409 716:1 1773:1 2226:1 2321:1 3270:1 5049:1 6088:1 7144:1 7650:1 9426:1 9498:1 9970:1 9972:1 10725:1 12153:1 13824:1 13882:1 13961:1 
0.2460428639245786 83:1 515:1 716:1 2228:1 2373:1 2596:1 2888:1 3251:1 4191:1 4818:1 4963:1 5950:1 7222:1 7285:1 8059:1 8353:1 9470:1 9972:1 11361:1 11444:1 13882:1 14026:1 16305:1 16528:1 
0.04847806854075617 716:1 947:1 3659:1 4071:1 5473:1 5755:1 5852:1 9412:1 9498:1 9970:1 9972:1 10625:1 11095:1 11194:1 14651:1 16293:1 17068:1 17308:1 18801:1 
0.01239256972391954 716:1 3613:1 3841:1 6080:1 8761:1 8776:1 9137:1 9333:1 9470:1 11324:1 16293:1 17675:1 
1 716:1 719:1 947:1 4443:1 16463:1 
0.3996774645553795 554:1 716:1 1423:1 3041:1 3215:1 5088:1 6227:1 6248:1 7144:1 7656:1 8081:1 8672:1 9470:1 10142:1 10810:1 13440:1 16150:1 16185:1 16293:1 16528:1 16610:1 18664:1 
0.05638825212804163 716:1 926:1 1140:1 1578:1 2226:1 3270:1 3590:1 3659:1 4200:1 5228:1 5473:1 6664:1 7144:1 9470:1 9557:1 10771:1 11486:1 13752:1 14825:1 14992:1 16293:1 17378:1 18000:1 
0.5475015662183926 584:1 716:1 885:1 1140:1 1207:1 1844:1 2188:1 2463:1 2845:1 3659:1 3704:1 5110:1 5453:1 5473:1 5701:1 6016:1 7144:1 7784:1 9383:1 9470:1 9843:1 10780:1 13512:1 13882:1 
0.2945101313583857 716:1 1359:1 1411:1 1709:1 2188:1 2430:1 2576:1 3659:1 4248:1 7640:1 7784:1 9470:1 9970:1 10811:1 11178:1 16395:1 16528:1 16956:1 
0.1003536989914197 220:1 716:1 879:1 1010:1 2321:1 4890:1 4963:1 5473:1 6139:1 6227:1 7144:1 7428:1 9470:1 9592:1 9970:1 9972:1 12468:1 14673:1 16293:1 16300:1 16509:1 16528:1 16561:1 17497:1 17748:1 17884:1 17910:1 
0.2270120374027445 307:1 716:1 1835:1 2430:1 7144:1 9074:1 9463:1 16293:1 
0.2308610854641832 716:1 786:1 1986:1 2226:1 3442:1 3482:1 3704:1 5453:1 5473:1 7952:1 9836:1 10125:1 11093:1 12520:1 16293:1 
0.06944647970923917 515:1 716:1 1257:1 2321:1 3659:1 4032:1 5260:1 5453:1 7051:1 7144:1 8076:1 8825:1 9470:1 9972:1 9976:1 9998:1 11098:1 13612:1 14714:1 16463:1 16528:1 16747:1 17197:1 17567:1 18429:1 
0.2239608784416427 584:1 716:1 2385:1 2463:1 3037:1 3251:1 5049:1 6056:1 7474:1 9470:1 10305:1 10811:1 12636:1 13563:1 13882:1 14244:1 15027:1 16293:1 16422:1 
0.4006039567456967 537:1 589:1 716:1 719:1 1844:1 2226:1 2596:1 3270:1 4963:1 5098:1 5925:1 5956:1 6270:1 7144:1 7578:1 8075:1 8399:1 8856:1 9470:1 10811:1 10871:1 11221:1 12099:1 13752:1 13882:1 14470:1 14945:1 15160:1 16063:1 16293:1 16330:1 16528:1 17197:1 17911:1 
0.01782016622667753 5:1 677:1 716:1 2321:1 2407:1 2803:1 5473:1 5476:1 5845:1 7079:1 8871:1 9295:1 9470:1 9987:1 11490:1 15059:1 15176:1 15389:1 16149:1 16293:1 18378:1 18396:1 
0.1926622074424273 353:1 716:1 719:1 885:1 1623:1 4818:1 4824:1 5473:1 5915:1 6328:1 7144:1 8856:1 9970:1 10567:1 10603:1 11098:1 12052:1 13824:1 13939:1 14770:1 14983:1 16330:1 16570:1 
0.1055946647362829 5:1 109:1 509:1 716:1 947:1 2226:1 3446:1 5473:1 7036:1 9470:1 10644:1 11486:1 12682:1 16528:1 
0.6789348662087327 716:1 978:1 2321:1 4069:1 5473:1 5538:1 5755:1 6762:1 6974:1 7144:1 8648:1 9051:1 9970:1 11486:1 12468:1 15160:1 16856:1 
0.3834174308167245 584:1 716:1 2463:1 4434:1 6179:1 8856:1 9470:1 12153:1 13379:1 13824:1 17981:1 
0.5172650436661211 716:1 959:1 1260:1 3159:1 4627:1 5473:1 9970:1 11950:1 16293:1 
0.1205278751881815 716:1 2188:1 2596:1 3158:1 13835:1 14985:1 16528:1 17608:1 
0.6700846494016582 123:1 716:1 885:1 893:1 937:1 2228:1 2321:1 3659:1 4963:1 7144:1 7222:1 7515:1 7526:1 7784:1 8856:1 9470:1 9987:1 9994:1 10817:1 11486:1 11494:1 12239:1 13563:1 13824:1 13882:1 14563:1 15845:1 15982:1 16787:1 17406:1 17727:1 18556:1 
0.5034141620751724 716:1 2218:1 2226:1 2941:1 3659:1 7378:1 7795:1 9470:1 9970:1 16291:1 
0.1626384970262275 584:1 716:1 1420:1 1886:1 2188:1 2463:1 2955:1 3324:1 3550:1 4196:1 5473:1 7398:1 7992:1 11950:1 12859:1 15059:1 
0.3050485341645342 5:1 716:1 1972:1 2321:1 3659:1 4360:1 4818:1 5473:1 6925:1 7051:1 7144:1 7572:1 7749:1 8196:1 9470:1 10318:1 11368:1 11647:1 14709:1 15272:1 16528:1 
1 456:1 716:1 9264:1 17733:1 
0.04525335064398936 716:1 1423:1 2321:1 2338:1 2463:1 4263:1 9470:1 9970:1 9972:1 9976:1 12548:1 12689:1 13026:1 16509:1 16528:1 18429:1 18806:1 
0.03801763415879809 145:1 716:1 947:1 1423:1 1844:1 2338:1 2382:1 2505:1 2596:1 3659:1 3737:1 4164:1 4371:1 5066:1 6900:1 7036:1 7144:1 9470:1 13752:1 13882:1 14952:1 16292:1 16293:1 16305:1 16352:1 18784:1 
0.6335107487086766 716:1 3331:1 3619:1 5473:1 9970:1 10337:1 16076:1 16528:1 
0.2842539360101235 716:1 756:1 2226:1 2291:1 2549:1 2966:1 3339:1 4802:1 4859:1 6636:1 6948:1 7144:1 8101:1 9466:1 9470:1 10114:1 12571:1 13287:1 14845:1 15654:1 16293:1 18664:1 
0.1115039102909348 716:1 768:1 2226:1 2321:1 2341:1 3297:1 3891:1 3915:1 4450:1 4818:1 5228:1 6127:1 6227:1 7144:1 8384:1 9474:1 10135:1 11369:1 12550:1 13824:1 13977:1 14789:1 16339:1 16528:1 17584:1 18719:1 
0.361231695480241 384:1 716:1 3251:1 3272:1 4818:1 5412:1 5473:1 6088:1 6939:1 7645:1 8088:1 8505:1 10202:1 10953:1 12254:1 12897:1 16293:1 17888:1 18556:1 
0.08764520208676944 643:1 716:1 2321:1 3070:1 3251:1 3294:1 3730:1 4269:1 5473:1 5950:1 6227:1 7663:1 8856:1 9470:1 9682:1 13119:1 13210:1 13323:1 16150:1 16422:1 17625:1 
0.2646791027542716 716:1 1313:1 1785:1 2047:1 2050:1 2321:1 3297:1 4963:1 5473:1 5930:1 7289:1 10185:1 10871:1 11770:1 13078:1 16293:1 16528:1 18103:1 18307:1 
0.4100454448121718 716:1 1281:1 2923:1 7144:1 13373:1 16956:1 
0.4897990301852641 515:1 716:1 719:1 2321:1 4071:1 5473:1 9998:1 10511:1 11154:1 11486:1 11665:1 12170:1 13752:1 14153:1 16528:1 16625:1 18351:1 
0.00151107668163935 716:1 3704:1 6156:1 7144:1 7584:1 16293:1 18675:1 
0.1071339606499931 275:1 643:1 716:1 1345:1 2188:1 3659:1 4048:1 4802:1 4964:1 5473:1 5900:1 5950:1 9470:1 9868:1 9998:1 10061:1 10197:1 11690:1 13175:1 13563:1 15623:1 18556:1 
0.5744168084685756 716:1 1423:1 2228:1 2321:1 3251:1 4964:1 6227:1 7908:1 9059:1 9792:1 11950:1 16038:1 16185:1 18684:1 
0.1286463954564076 110:1 716:1 2226:1 4735:1 9470:1 
0.3077661552304995 5:1 716:1 2966:1 3091:1 3270:1 3975:1 5166:1 5454:1 5564:1 8173:1 9470:1 9578:1 9654:1 9972:1 10611:1 12871:1 13526:1 13658:1 13961:1 15221:1 16528:1 
0.3215126336180042 716:1 3402:1 5495:1 7144:1 13563:1 16293:1 16528:1 17242:1 17954:1 
0.3426929790497326 716:1 1598:1 4802:1 5473:1 6565:1 7144:1 8290:1 9470:1 9845:1 9970:1 13026:1 15419:1 15700:1 15850:1 16293:1 16528:1 
0.105559004470928 9:1 716:1 885:1 1313:1 1581:1 3270:1 3297:1 3823:1 5473:1 5501:1 8351:1 9737:1 14003:1 14406:1 14770:1 14996:1 15059:1 16293:1 
0.466339286253523 534:1 716:1 854:1 861:1 1440:1 2596:1 2915:1 3270:1 3312:1 3649:1 4963:1 5473:1 6056:1 6087:1 7144:1 7145:1 9470:1 9783:1 9972:1 10186:1 10933:1 11277:1 12008:1 14470:1 16293:1 16528:1 17197:1 18462:1 18604:1 
0.005394290699898449 716:1 2321:1 2400:1 3281:1 4316:1 5950:1 6227:1 7144:1 7186:1 9470:1 9972:1 10817:1 11072:1 11317:1 15733:1 16293:1 18086:1 
0.452824187926812 716:1 730:1 2516:1 5473:1 7285:1 9470:1 9970:1 11950:1 12169:1 12584:1 13512:1 13882:1 16293:1 16330:1 
0.005719101732318951 716:1 1035:1 1140:1 1752:1 2230:1 2321:1 3659:1 4964:1 5473:1 6467:1 6762:1 6925:1 7144:1 9370:1 9470:1 9987:1 9994:1 10859:1 11409:1 11486:1 11933:1 13835:1 14952:1 15449:1 16293:1 16528:1 18556:1 
0.6005401585706192 2321:1 3659:1 5742:1 8971:1 9972:1 10850:1 10995:1 12437:1 
0.2986684577180694 515:1 647:1 716:1 2230:1 6895:1 8399:1 9470:1 12374:1 16293:1 16349:1 16528:1 
0.1873770544017802 503:1 716:1 1140:1 2226:1 3659:1 4089:1 4431:1 4549:1 4818:1 4963:1 5452:1 5739:1 5811:1 6530:1 8266:1 9470:1 9970:1 10357:1 15445:1 15547:1 16377:1 16528:1 18123:1 
0.1176813861594118 552:1 716:1 793:1 1151:1 2321:1 2752:1 3430:1 4926:1 5473:1 5707:1 7144:1 9470:1 9970:1 10388:1 11227:1 11950:1 16293:1 16528:1 18130:1 
0.3487721095384122 304:1 716:1 1712:1 1844:1 2226:1 4818:1 9470:1 9970:1 12870:1 17084:1 
0.0542684859609352 5:1 716:1 2321:1 3251:1 3270:1 5051:1 5088:1 5629:1 5888:1 6227:1 6947:1 7144:1 8382:1 8683:1 8761:1 9266:1 9470:1 9970:1 11746:1 12165:1 12238:1 13463:1 15222:1 16528:1 
0.2252834580190925 515:1 716:1 1533:1 1776:1 2463:1 3349:1 4106:1 4942:1 5473:1 8648:1 9470:1 9624:1 9972:1 9994:1 10671:1 12290:1 12468:1 12955:1 15160:1 16454:1 16528:1 
0.4338800144630192 5:1 716:1 1420:1 2583:1 4316:1 5400:1 7426:1 9470:1 12622:1 13323:1 14595:1 15565:1 16528:1 
0.5246682349745105 716:1 2941:1 4191:1 6802:1 7144:1 10811:1 16528:1 
0.2274645188989328 716:1 1194:1 1374:1 4802:1 6882:1 12254:1 13672:1 16293:1 16610:1 18556:1 
0.5349982466570536 109:1 716:1 947:1 1420:1 2321:1 2874:1 3251:1 4594:1 4818:1 6056:1 7144:1 9470:1 9970:1 9972:1 9998:1 10026:1 10953:1 11468:1 11489:1 13824:1 13835:1 13855:1 15001:1 16305:1 16330:1 18805:1 
0.3563805755014117 209:1 716:1 1095:1 2321:1 2926:1 3821:1 5473:1 9970:1 11489:1 11883:1 13835:1 
0.1396418553170297 716:1 9354:1 10791:1 16528:1 
0.09044907231919135 716:1 2596:1 4777:1 4818:1 10230:1 15021:1 
0.1137975175062517 163:1 716:1 885:1 947:1 1140:1 1420:1 2228:1 2321:1 3551:1 4928:1 6091:1 6227:1 6417:1 7144:1 7484:1 9059:1 9470:1 9970:1 9972:1 9987:1 10790:1 11659:1 12871:1 12932:1 14770:1 14861:1 16061:1 16145:1 16293:1 16330:1 16528:1 16670:1 17142:1 
0.5160628266316384 947:1 1229:1 2188:1 4071:1 5473:1 5755:1 6361:1 6428:1 11165:1 11486:1 15480:1 15982:1 16434:1 18882:1 
0.06458609939716235 716:1 1575:1 1759:1 2549:1 5260:1 5453:1 5473:1 6643:1 7144:1 8968:1 9470:1 9957:1 10743:1 11447:1 11489:1 12506:1 12570:1 16528:1 17733:1 
0.2407754499635341 716:1 1319:1 3342:1 5852:1 7144:1 10811:1 11486:1 16293:1 
0.1828791435625768 716:1 1235:1 1313:1 1952:1 3659:1 4450:1 4818:1 5217:1 5645:1 6051:1 6762:1 7144:1 9470:1 9791:1 10871:1 12531:1 13563:1 15223:1 16528:1 16982:1 
0.1175634949255466 716:1 732:1 1851:1 2133:1 2230:1 4818:1 5474:1 7632:1 11542:1 13818:1 13882:1 16911:1 
0.05924526861999986 716:1 2188:1 3270:1 4498:1 7144:1 7428:1 7987:1 11486:1 13563:1 13876:1 16528:1 
0.6599640203552492 2509:1 4565:1 4818:1 5040:1 6087:1 8361:1 9470:1 9498:1 11486:1 14881:1 16463:1 16956:1 
0.2401186107261707 647:1 716:1 808:1 1109:1 1932:1 2230:1 3769:1 5473:1 5950:1 6667:1 7090:1 7144:1 7285:1 9470:1 9970:1 10342:1 10929:1 12374:1 13835:1 16161:1 16293:1 18888:1 
0.1804743955952624 716:1 896:1 1198:1 2226:1 2928:1 3464:1 3751:1 4035:1 4818:1 4857:1 5473:1 7144:1 7207:1 7712:1 8724:1 8943:1 9470:1 11667:1 12664:1 13552:1 14150:1 16293:1 16528:1 16797:1 17823:1 18286:1 
0.2539759795379025 716:1 947:1 2976:1 3659:1 4032:1 4504:1 4818:1 5473:1 5862:1 8320:1 9394:1 9470:1 9498:1 9970:1 12205:1 13648:1 14475:1 15247:1 15360:1 16293:1 16435:1 
0.133534793545922 716:1 3704:1 5273:1 7144:1 11205:1 11807:1 12468:1 14612:1 15081:1 15345:1 16293:1 16528:1 
0.1867306186187178 716:1 1981:1 2204:1 2975:1 4032:1 4432:1 4818:1 5473:1 6227:1 7233:1 7964:1 8552:1 9470:1 10284:1 10790:1 10991:1 11986:1 12099:1 12905:1 15229:1 15652:1 16463:1 16528:1 16906:1 17142:1 17565:1 
0.4678982898468777 716:1 915:1 929:1 1140:1 2226:1 2228:1 2321:1 2622:1 3270:1 3350:1 5473:1 6610:1 6926:1 7144:1 8259:1 10373:1 10993:1 11313:1 11486:1 16293:1 
0.001482670173115816 150:1 716:1 1420:1 1768:1 1858:1 2099:1 2941:1 3464:1 3659:1 4818:1 5473:1 6217:1 8926:1 9393:1 9470:1 9972:1 11804:1 12905:1 13752:1 13835:1 14535:1 15059:1 15100:1 16293:1 16305:1 18011:1 18865:1 
0.2941583533118428 167:1 531:1 716:1 1495:1 2226:1 2391:1 3464:1 5766:1 6227:1 6447:1 9470:1 13539:1 15621:1 16609:1 17548:1 
1 716:1 2941:1 3091:1 8176:1 9657:1 13648:1 13882:1 15360:1 16528:1 18932:1 
0.1388139896790912 645:1 716:1 2516:1 3301:1 4508:1 5473:1 6227:1 7144:1 9470:1 9843:1 12468:1 13562:1 16076:1 16185:1 16293:1 16344:1 16528:1 
0.2272924553413094 716:1 728:1 1140:1 2321:1 2596:1 4963:1 5439:1 5453:1 5473:1 5650:1 6055:1 6170:1 6834:1 8088:1 9380:1 9470:1 9665:1 9972:1 12275:1 13298:1 13835:1 14771:1 16150:1 16293:1 16528:1 18205:1 
0.1005191951876835 716:1 7144:1 10815:1 11475:1 11486:1 16528:1 
0.129440693467795 716:1 947:1 3423:1 8872:1 14595:1 15320:1 16293:1 17068:1 
0.008443586554140176 716:1 4189:1 5382:1 5453:1 7144:1 8604:1 8982:1 9470:1 18340:1 
0.03947089981397734 716:1 862:1 1313:1 1623:1 2400:1 2596:1 2767:1 3120:1 3704:1 3976:1 5473:1 5564:1 6227:1 7144:1 11098:1 13563:1 13954:1 14689:1 15019:1 16293:1 17622:1 
0.3627230984625148 5:1 584:1 716:1 1140:1 1262:1 1313:1 1423:1 1475:1 2228:1 2321:1 2427:1 2463:1 2803:1 3091:1 4663:1 4818:1 5110:1 5473:1 6088:1 6361:1 7784:1 9470:1 9498:1 9970:1 9987:1 13563:1 13882:1 14271:1 15982:1 16293:1 16870:1 18743:1 
0.6442662588811547 716:1 1886:1 2321:1 3430:1 3734:1 4818:1 5384:1 5473:1 5645:1 6227:1 6361:1 7144:1 7488:1 9470:1 9972:1 11154:1 11486:1 13752:1 13882:1 16293:1 
0.4662530866531071 17:1 716:1 1281:1 2226:1 2321:1 2941:1 3704:1 4254:1 4963:1 5473:1 6392:1 7439:1 8963:1 9470:1 9970:1 12527:1 13824:1 13990:1 16330:1 16463:1 16528:1 
0.06091630919985447 716:1 1246:1 1354:1 2228:1 2249:1 2503:1 3895:1 4818:1 5473:1 6088:1 6591:1 6929:1 7105:1 7487:1 7927:1 9470:1 9498:1 9682:1 9972:1 9998:1 10381:1 11805:1 12052:1 12468:1 12985:1 13563:1 13882:1 15455:1 16293:1 16305:1 16528:1 16967:1 17901:1 18123:1 
0.1809449765053902 299:1 716:1 1140:1 1759:1 2331:1 2516:1 4818:1 5473:1 5587:1 6178:1 7144:1 7208:1 7753:1 9470:1 9698:1 11694:1 12984:1 13128:1 13605:1 15049:1 16293:1 16528:1 16569:1 16610:1 16731:1 
